filename,0,1,2,3,4,5,6,7,8,9,10,11,12,13,14,15,16,17,18,19,20,21,22,23,24,25,26,27,28,29,30,31,32,33,34,35,36,37,38,39,40,41,42,43,44,45,46,47,48,49,50,51,52,53,54,55,56,57,58,59,60,61,62,63,64,65,66,67,68,69,70,71,72,73,74,75,76,77,78,79,80,81,82,83,84,85,86,87,88,89,90,91,92,93,94,95,96,97,98,99,100,101,102,103,104,105,106,107,108,109,110,111,112,113,114,115,116,117,118,119,120,121,122,123,124,125,126,127,128,129,130,131,132,133,134,135,136,137,138,139,140,141,142,143,144,145,146,147,148,149,150,151,152,153,154,155,156,157,158,159,160,161,162,163,164,165,166,167,168,169,170,171,172,173,174,175,176,177,178,179,180,181,182,183,184,185,186,187,188,189,190,191,192,193,194,195,196,197,198,199,200,201,202,203,204,205,206,207,208,209,210,211,212,213,214,215,216,217,218,219,220,221,222,223,224,225,226,227,228,229,230,231,232,233,234,235,236,237,238,239,240,241,242,243,244,245,246,247,248,249,250,251,252,253,254,255,256,257,258,259,260,261,262,263,264,265,266,267,268,269,270,271,272,273,274,275,276,277,278,279,280,281,282,283,284,285,286,287,288,289,290,291,292,293,294,295,296,297,298,299,300,301,302,303,304,305,306,307,308,309,310,311,312,313,314,315,316,317,318,319,320,321,322,323,324,325,326,327,328,329,330,331,332,333,334,335,336,337,338,339,340,341,342,343,344,345,346,347,348,349,350,351,352,353,354,355,356,357,358,359,360,361,362,363,364,365,366,367,368,369,370,371,372,373,374,375,376,377,378,379,380,381,382,383,384,385,386,387,388,389,390,391,392,393,394,395,396,397,398,399,400,401,402,403,404,405,406,407,408,409,410,411,412,413,414,415,416,417,418,419,420,421,422,423,424,425,426,427,428,429,430,431,432,433,434,435,436,437,438,439,440,441,442,443,444,445,446,447,448,449,450,451,452,453,454,455,456,457,458,459,460,461,462,463,464,465,466,467,468,469,470,471,472,473,474,475,476,477,478,479,480,481,482,483,484,485,486,487,488,489,490,491,492,493,494,495,496,497,498,499,500,501,502,503,504,505,506,507,508,509,510,511
zara_01.jpg,-0.022581197,0.018900122,0.00835912,-0.0076421746,0.0022792777,0.034732997,-0.01776437,0.032893773,0.052575964,-0.01839847,-0.038902514,0.008825658,-0.036398698,-0.020425634,-0.026348047,-0.009117896,0.022313586,0.007109245,0.019488167,-0.008841725,-0.005431297,0.007549136,0.033372134,-0.007325088,0.0046859416,-0.0008660126,-0.028628068,-0.04375202,-0.014774992,-0.027741639,-0.029616,0.018090878,0.009917431,0.031945676,-0.041628458,0.02401029,-0.019171964,0.06388773,0.007942105,0.15081127,-0.06922432,-0.06060047,-0.022460569,-0.0053795483,-0.013926723,-0.040813513,0.044669308,0.029160654,0.023715744,0.035585456,0.047357295,-0.0032655678,0.04912919,0.03470848,-0.05649106,0.024252485,0.035236724,-0.0144230565,-0.01639376,0.069963776,0.04636748,0.009771471,0.0066699567,-0.029121213,-0.059314463,-0.0024492566,0.014482315,0.023249984,-0.007950449,0.028958544,-0.033577207,0.014257167,0.013270938,-0.02384114,0.00069121004,-0.026764534,0.0005489959,-0.047529195,-0.007311573,-0.034582067,-0.020126097,-0.0381533,-0.05029821,0.019575827,0.007046327,0.027000539,-0.029069407,-0.04537347,-0.028083025,0.001618124,0.010062462,-0.009326868,-0.5843087,0.055453975,-0.026598616,0.047207378,0.0039582965,-0.02304792,0.039591517,0.045938563,-0.06829486,-0.03170379,0.028013308,0.007046055,0.0075204796,-0.010610628,-0.12173198,0.021380046,-0.037044454,-0.00072449056,-0.0029899008,0.058463164,-0.019109076,-0.023046069,-0.008809,-0.03068635,-0.046651576,0.033171125,-0.011801404,-0.02359318,0.00936522,0.041642755,0.0133806085,-0.0014896139,-0.0026881564,-0.0072597344,0.007970995,0.030603277,0.009288706,0.023000684,-0.0005648792,0.036895093,0.030979605,0.08471405,0.037557036,0.026806347,-0.0068035508,-0.022185547,-0.00986516,-0.029238963,0.017121635,-0.028059587,0.016334774,0.031584058,-0.04821645,0.0062365234,0.020643216,0.054077823,0.019344786,-0.017434025,-0.019906623,0.0031056623,0.099719785,-0.002385554,-0.04541639,-0.0134829655,0.008727949,0.056700278,-0.015344454,0.05213815,-0.03129174,-0.02001021,0.0050034556,0.018811142,0.013215849,-0.012305924,0.07437253,-0.0082664825,0.0033995379,-0.018086242,0.046334043,-0.031535342,0.008708125,-0.04466143,-0.03279647,-0.0008080208,0.08623113,0.024478577,0.0860218,-0.0024910308,0.052804064,-5.0040453e-05,0.040218137,-0.0057251705,-0.024339378,-0.004297375,-0.010451743,-0.028089358,-0.07046485,-0.014369715,-0.01393014,-0.03472159,-0.031819288,0.03082096,0.036342338,0.015508398,0.0180666,-0.031364847,-0.03579774,0.0046398332,-0.01939296,-0.016088597,-0.040714383,-0.011332398,0.012805272,-0.0003261634,-0.07014671,-0.054687828,0.018056886,0.037917227,-0.033276826,0.082108006,0.0040599434,-0.016822685,-0.017365672,-0.007981302,0.0407213,0.027330255,-0.014320422,-0.015763886,-0.009316923,-0.006264176,0.0046942756,0.036379084,0.005538583,0.00679407,0.078661606,0.0045412923,-0.041011967,-0.009042107,0.009193274,-0.04655796,-0.0024074223,-0.04059341,-0.019350393,0.023211163,0.021286443,-0.051240504,-0.005933937,-0.010008898,0.003530948,0.037582774,0.025842547,-0.05023997,0.008030587,-0.078147314,-0.00013049545,0.0063751927,0.0053216023,0.01987961,0.02298371,0.0019762113,0.05674315,0.00800393,-0.024338853,0.034649555,0.0032749176,-0.0072048944,-0.16403948,0.010198843,-0.020222785,0.011796491,-0.007746769,-0.041702345,0.046093155,0.030066105,-0.025909828,0.011399681,-0.02241032,0.011897692,-0.017597716,0.025419315,-0.007561199,-0.0061031124,-0.014745721,0.01262846,0.022124952,-0.013433999,-0.041950073,0.0045717834,-0.0077445228,0.013742903,-0.031850144,-0.016061459,-0.012017119,-0.026993303,0.13844793,0.01710843,0.020672854,0.013136194,0.002696258,-0.014616372,-0.0035669077,-0.017939059,-0.053679798,0.021621274,-0.034239795,-0.021487376,-0.009459344,0.0019177038,-0.041793942,-0.05837833,-0.025561716,0.050226644,-0.010404561,-0.074721895,-0.0071046194,-0.040493876,0.044212244,-0.029580012,0.013230757,0.041826684,0.084509045,-0.00085317076,-0.024677249,-0.03586301,0.022789149,-0.020625629,-0.0068194657,0.019947655,0.031885177,0.17190617,0.004552168,-0.057456724,-0.00036272116,0.014806845,0.057920292,0.040029727,-0.0028060826,0.007198537,-0.012569687,-0.023717754,-0.029826563,-0.01059656,-0.04023881,-0.001104219,0.0014572353,-0.01843963,0.024270253,-0.033771534,-0.01948645,-0.0077533848,0.03316993,0.006262888,0.027499143,0.007201798,-0.02829158,-0.04056164,0.009840219,0.014899154,-0.020526653,0.043106135,-0.00031758432,-0.014393228,0.025786454,0.015688524,0.0030814663,0.07050834,0.009906397,-0.004500865,0.016648127,-0.03849992,0.015553528,0.047055025,0.027716609,-0.012200485,0.009914968,0.066499785,-0.0067809075,-0.01638431,0.0019612669,-0.0030741394,0.041249,0.017651089,0.009585007,-0.027013443,0.022298444,0.012737806,0.021587636,-0.031898398,0.01754625,-0.047504343,-0.052112926,-0.022803998,-0.016609235,0.021433685,-0.0030537415,0.046848606,0.008618956,0.11007864,-0.124530524,-0.066280186,-0.0066555073,0.026804788,-0.063501894,-0.0016612577,-0.012476224,0.0026274624,-0.0009960454,0.0065002735,0.0154540725,-0.0068502347,0.100345634,-0.026468432,-0.02369465,-0.0048665884,-0.026922429,0.019193487,-0.0023393782,-0.027559156,0.025811622,-0.009846104,-0.0013587819,-0.025206925,-0.018481763,0.044067055,0.038267247,0.033142123,-0.028891334,-0.042068005,0.02744483,-0.010409013,-0.014495197,-0.008913455,0.010120373,0.005452795,0.08030088,0.014112878,-0.15863274,-0.026049787,-0.0264073,-0.01371082,0.13605118,-0.004345597,0.020006984,-0.014155791,0.011749648,-0.011071455,0.006487083,0.021466563,0.015408834,0.020021472,0.014655063,0.019787366,0.0055034747,-0.026156163,-0.020871496,-0.038510624,-0.022135474,0.0022300454,-0.011027518,-0.0068149064,0.04090257,-0.03279641,0.023603229,0.03704954,-0.014986954,0.04252335,0.0023695743,-0.0006052954,-0.026739568,0.04530849,-0.03676628,-0.01348378,0.0050548534,0.00077633327,0.07841439,0.017492248,-0.017344283,-0.023732645,0.02563295,0.020605665,0.053402286,-0.06901144,0.020562856,-0.01951575,-0.0005645221,0.049390975,-0.0026469303,0.050112616,-0.036874812,-0.03315244,0.003763669,-0.0155750085,0.017752523,0.049805466,-0.028783768,0.03768388,-0.022400368,-0.044557896,0.022580927,-0.013157811,-0.028152656,-0.062300656,-0.032463185,-0.027894154,0.016277835,0.035634886,0.01823185,0.0214895,-0.00787682,-0.02637258,0.021837093,-0.011585656,-0.0030882694,-0.01287163,-0.02979626,0.025123423,-0.0135738375,0.07232244,0.0184072,0.041634094
zara_02.jpg,-0.051905554,0.006618132,0.019271929,0.012646249,-0.02431019,0.028630741,0.0011812267,-0.018268099,0.007648572,0.0105201695,0.02336079,-0.002998612,-0.050057143,-0.023462754,0.022659216,-0.03232822,-0.03711166,-0.0094829425,-0.0027409443,-0.020518655,0.019540908,-0.032406136,-0.008067172,-0.004577575,-0.010902649,7.831947e-05,0.023756485,0.021409724,0.0028722223,0.019853659,-0.044634335,-0.024213688,-0.054559276,-0.027107457,-0.051528588,0.012526191,-0.011569893,0.024288895,-0.011749086,0.27175635,-0.043228585,0.031571846,-0.023373393,0.017978458,-0.0122496,-0.01689599,-0.016639795,-0.015859434,-0.0012389969,0.029403742,0.038466506,-0.022104368,-0.019738,-0.02154348,-0.04554972,-0.043690316,0.013270964,-0.0091416035,-0.028289374,0.0059441375,-0.058088016,0.010737376,0.01165545,-0.03937645,-0.046417,-0.0075957687,-0.023728056,-0.06912973,0.008027212,0.013817084,-0.039160453,0.0032449441,-0.04211402,-0.043054268,0.014379061,-0.013261433,0.027497357,0.019789789,0.022848478,-0.008676092,0.023693798,-0.0434436,-0.004174299,0.019480538,-0.024951622,0.041516166,0.07971813,-0.020501116,-0.0043925447,-0.04236161,0.04876162,0.0020222038,-0.6111659,0.012437309,-0.017823953,0.032066062,0.014033005,5.313911e-05,0.013596708,0.07862133,0.021853058,-0.026964732,0.0028392666,-0.008239849,-0.006564074,0.017480016,0.118119046,-0.021359596,0.011295397,0.043231305,-0.0053449892,0.008686141,-0.0024131357,0.00056970055,0.006277974,0.007705525,-0.007140147,-0.0003025492,0.036766954,-0.0035191353,0.017398981,-0.03853387,0.026213307,-0.0031430498,-0.052237015,-0.0028697862,-0.008802791,0.009470322,0.015614602,0.048543196,0.026643436,0.05807983,0.017937465,0.07312193,-0.0141348895,0.06413439,0.017685743,-0.023251655,-0.047670837,0.0336926,-0.03122755,-0.037111714,-0.034548532,0.021957181,-0.021679295,0.0060689915,0.012787134,0.023303857,-0.014162587,0.013785311,-0.04422061,-0.008993941,0.07581362,0.0574439,0.045681197,-0.059858862,-0.025408568,0.043730646,-0.0014326816,-0.006666627,0.0102429185,-0.01615631,-0.010163528,0.03641699,0.020532785,-0.02742898,0.0019369537,0.027605103,-0.007098493,-0.008808635,-0.016610343,0.00230902,-0.035177715,-0.02324959,-0.02901789,-0.005083093,-0.015436057,-0.028578877,0.036440387,0.0009980326,0.06514384,0.0113384845,0.05054335,0.00018383257,-0.048514012,0.0036913636,0.0021962859,-0.0075125387,-0.0108181685,-0.020038832,0.03743934,0.022926591,-0.006696421,0.009275285,-0.042859305,-0.0327801,-0.00487723,-0.03216545,0.034598596,-0.015077937,-0.03613249,0.0025780667,0.03358824,-6.44453e-05,0.010473344,-0.029541438,-0.019230612,0.009130845,0.017247073,0.002606992,0.09201983,0.05254581,-0.03999522,0.007830501,-0.010067575,-0.0033323432,-0.021892855,0.011161219,0.021602971,-0.003038943,-0.023777459,-0.044174343,0.012090389,-0.023037037,0.005440755,0.05292043,0.04336918,-0.032478403,0.0027178542,0.020940302,-0.027007366,0.030827032,0.027767116,0.027064541,-0.032032926,-0.115995556,0.005226787,-0.04868165,0.023257066,-0.020819202,7.8845565e-05,0.005339959,0.0015913153,-0.014888728,0.010420441,0.013611417,-0.044823527,-0.013478301,0.01044563,0.013543798,0.0058241854,0.0051682736,-0.011025704,-0.0021027164,0.04318078,0.045949843,0.014128786,0.024083337,-0.07677863,-0.024103679,0.0031581777,-0.03403847,0.051906772,-0.07654836,-0.0005944322,-0.0181193,-0.041126292,0.021889823,-0.018338768,-0.05245625,0.033512477,0.0099520255,0.03809782,0.008658382,-0.008968784,0.018231712,-0.0008425948,0.0072106314,0.010065359,0.000648304,-0.00051248854,-0.045141228,-0.09421721,-0.0006037232,0.019826598,0.041527472,0.01590385,-0.029547103,0.0042184135,-0.0071829646,0.022417204,-0.026472405,0.016185343,-0.011827196,-0.0011691614,-0.019477004,-0.055794142,0.0136773335,0.0032759511,0.03640675,0.022774087,-0.03698414,0.01990895,-0.006656916,0.0027149434,0.006016213,-0.04744991,-0.010306058,-0.0186859,-0.022822984,0.009003428,-0.031775896,0.07279794,0.035707515,-0.013932176,0.0033248272,0.033827145,0.023267947,-0.018888347,-0.06506656,-0.047253687,0.117017515,-0.04587594,-0.015147893,-0.013832602,0.034048855,-0.010037073,0.0120975515,0.032114744,-0.02728777,0.012415514,0.0007654791,-0.048169065,0.011679728,-0.04591927,-0.010463935,0.011006945,-0.022898125,-0.030914253,0.054802593,0.0018034873,-0.048856013,0.006133024,0.06333312,-0.015638882,0.024529863,-0.004878498,0.021608153,-0.010305424,-0.0045207995,0.046527226,0.003871782,-0.007728324,-0.022829387,0.008841126,-0.057760194,0.024123568,0.05941444,0.013804452,-0.03140678,0.019060021,-0.005136701,0.030838458,0.023215827,0.008081395,0.0020738554,-0.007958303,-0.074923284,-0.003362474,-0.013664866,-0.0015059013,-0.051843263,0.0102605,0.001466412,0.032675866,-0.034039993,0.14172038,0.036661584,0.0005254938,0.017241318,-0.058852423,-0.0056527164,-0.04012873,0.0051786574,-0.010528651,0.0048405915,-0.0019778013,0.01665671,-0.021943023,0.20124821,-0.061794177,0.0020546373,0.011559585,-0.032419477,0.0069378307,-0.024241691,-0.02151133,0.014520379,-0.03110488,0.015960269,0.027972013,0.003118144,0.080961,-0.0068398034,0.021659534,0.017633498,-0.025407435,0.0031075345,0.072187334,-0.036950916,-0.0016683566,-0.03397548,-0.022221465,-0.008934624,-0.029824467,0.027535055,0.079842575,0.038749166,-0.018899525,-0.019382866,0.012021101,0.019670846,0.0044535906,0.0011950978,0.003798823,0.024528781,0.05474692,0.016533554,-0.10374869,-0.015214617,-0.011280536,0.04958903,0.14944436,0.006424916,0.008082839,-0.0473572,0.018728029,0.016432159,-0.0010456652,-0.00706226,-0.010451636,0.0031865663,-0.03630277,0.004188267,0.03420159,0.021004971,0.028251896,-0.0030159173,-0.024656441,-0.013214874,-0.020332815,0.039313316,0.019678857,0.027012346,-0.0055552237,0.052913677,-0.0034785736,-0.02004182,-0.03005755,0.0009877495,0.030237557,0.036680236,-0.03132186,-0.060345627,0.03269677,0.026984215,0.017224904,0.021390634,0.024440745,0.015377974,0.014120728,0.031929538,-0.008422685,-0.019273331,0.008721777,-0.0020889994,0.00698477,-0.00226171,0.009923466,0.0011512329,-0.007857832,-0.044458974,-1.8950304e-05,0.007243764,0.008987775,0.016209625,-0.03766563,0.008972156,-0.007690573,0.0017407241,0.015904129,0.0060551474,0.035002347,0.0010296423,-0.0029866127,0.0025238323,0.021038683,0.048352566,-0.019467115,0.019111605,-0.028773837,0.024164842,-0.012742935,0.0016838732,0.014458888,-0.04868043,-0.023932414,-0.0067992196,0.019433284,0.03535719,-0.0135390125,-0.0027401843
zara_03.jpg,-0.014307129,0.030836396,-0.02547502,0.011904917,-0.00904523,0.041108716,-0.050241143,-0.004765845,0.045880485,0.034781106,0.012920611,0.036256157,-0.0026224104,0.009743994,0.02776133,-0.011587539,-0.010063731,0.013515874,0.0052798525,-0.015699854,0.002996347,-0.041405123,0.028725626,-0.0011553944,-0.018979197,0.00031349223,0.0240484,0.022035243,-0.0034531425,-0.027535176,-0.0070726015,-0.006169836,-0.0004697384,0.021070374,-0.016047545,0.00415023,0.0045694476,0.04202971,-0.0007956231,0.20486449,-0.024449356,0.012495446,-0.021662328,0.03481578,0.0049433084,-0.123644225,0.027566357,0.019618252,0.005773651,0.05854443,0.08129654,-0.019606851,-0.013618139,0.0049130283,-0.04249875,0.024405627,0.074729994,-0.016181273,0.016011238,0.0212854,0.03150218,0.014150677,0.025049271,-0.021494083,-0.023182727,0.00080201076,-0.0069366493,-0.049256224,-0.0058340267,-0.0010085402,-0.036735166,0.03208481,-0.02289946,0.014320053,-0.007169923,0.008106485,0.017103627,-0.010223998,-0.021706447,0.03201594,-0.0041771326,-0.024588738,-0.0046248417,0.043767583,-0.011066428,0.016038898,0.089345835,-0.03192,-0.031099249,-0.01798556,0.045333482,0.0029723786,-0.6354551,0.0591153,0.0066444143,0.047980722,-0.00734171,-0.003735053,0.01008064,0.09892411,-0.026647951,-0.022896882,0.018591182,2.2151393e-05,-0.0008160544,-0.004605968,0.045458768,-0.021857796,-0.027469767,0.035769716,-0.032688614,-0.0063508134,-0.027279504,-0.0034420306,0.013759404,0.019801905,-0.03605012,0.026172366,0.033337913,-0.009464446,0.04921489,0.00077490293,-0.012335948,-0.018297847,-0.02378523,-0.0066212667,-0.02743699,0.023119181,-0.012384266,0.0379152,0.0025301499,0.011995206,0.03287223,0.07259922,0.009975895,0.035751294,-0.04451997,0.033577587,-0.040276416,0.00481705,-0.0023177185,-0.04697437,-0.028651437,0.030139886,-0.020968303,0.01589184,-0.0074728457,0.03695271,-0.013230686,0.010700957,-0.01841447,0.00693361,0.14218329,0.013013003,0.00093008706,0.008705073,0.0070399595,0.0060786894,-0.004221508,0.023888743,-0.026548302,0.0052007553,0.03027662,0.007002958,0.0065720575,-0.026645297,0.0069036903,0.023713412,0.015419826,-0.015082274,0.01878658,0.02358148,0.019811152,-0.009510194,-0.016292116,0.023362277,0.036892056,-0.0086115375,0.040688064,-0.037029807,0.07138708,-0.022991585,0.044435672,-0.032309867,-0.0073626935,0.008020543,-0.01697315,-0.0078357635,0.018089082,-0.009853222,0.019222608,0.01704296,-0.031406865,0.0035089983,-0.006601622,-0.009226102,0.016239127,-0.01093741,0.054638475,0.0065652686,-0.035721075,-0.0068614655,0.010328903,-0.0004583673,0.0052448018,-0.014559612,-0.051245615,0.0001904118,0.0061855586,0.048331276,0.0213701,0.050474886,0.0029852502,0.0009583089,-0.049294688,0.0017502912,-0.0076020258,0.029494015,0.037765488,-0.04944559,-0.035625078,-0.052660123,-0.0203781,0.017520586,0.011069112,0.015880268,0.016077818,-0.025356377,-0.031005755,0.0030688415,-0.02116357,-0.010052821,0.006600399,0.009629452,-0.02124903,-0.08243573,0.012660967,-0.022091223,-0.010717529,0.01207574,0.0041492055,0.040541247,0.025314577,-0.04295489,0.0022668792,-0.013054729,-0.020236276,0.010767671,0.00086510286,-0.014611963,0.01644328,0.0032109334,-0.007014884,-0.015211743,-0.008816068,0.037243802,-0.007927361,0.017219977,-0.11196466,0.0060346765,0.016839923,-0.008583749,-0.005038846,-0.037792455,-0.020326154,-0.025723815,-0.007569347,0.006620501,-0.022496633,0.020887036,0.036858726,0.02657433,0.011472521,-0.036557812,0.0007088702,0.010731668,-0.023028735,-0.015337164,-0.03417794,-0.0062348316,-0.019501008,-0.03139843,-0.094429955,-0.012089283,-0.013153928,0.0024593154,0.059157208,-0.020187,0.027967643,-0.007074976,0.007951244,-0.012445617,0.0077701528,-0.00023583508,-0.029608559,0.018556973,-0.02620733,-0.0068523176,0.0174614,-0.009691602,-0.004530977,-0.029706392,-0.003232976,-0.03954684,0.003549376,-0.005505671,0.005003525,0.04251523,0.004771195,0.00010486476,-0.04145318,0.030764949,0.07247982,0.007849277,0.02040663,-0.0147705935,0.0351037,0.004192099,0.006229488,-0.018414004,-0.022031754,0.15902878,-0.013877548,-0.02374343,0.017082362,0.0037868703,0.036453318,0.020576064,0.0052646226,-0.02058108,0.033605374,0.011744955,0.0010731259,-0.022767827,-0.015541669,-0.0050921603,-0.0005442677,-0.0038149653,0.016142253,0.025677074,-0.0005281542,-0.05141064,-0.0046299626,0.049184237,0.009946695,0.02144348,-0.003195755,-0.016222091,-0.010266091,-0.0029319173,0.012740112,0.0069883,0.009829365,-0.034221273,0.020330653,-0.0587163,-0.01495145,0.082311526,-0.0017885229,-0.018168109,0.068800636,-0.02594582,-0.0024417737,0.049560986,0.014489803,-0.0064521213,-0.018175812,-0.045345943,0.0027888103,-0.00048873766,0.0007552814,-0.0034360427,0.021697951,-0.000297353,0.023997648,-0.032704968,0.10631401,0.0052843597,-0.016394148,0.016616058,-0.013497978,-0.037986007,-0.0065040155,-0.048564497,-0.033223055,0.019723516,0.0012321252,0.019107739,-0.040683024,0.14075132,-0.10240945,-0.026255645,-0.0035822324,0.0033432099,-0.031246252,0.0012081078,-0.019653868,0.02112723,0.049605947,0.022360716,0.027009115,0.016534116,0.10982341,-0.009580415,0.04215645,0.021663828,-0.009740426,-0.041923545,0.0618303,-0.015595586,-0.0061609703,-0.013896517,0.007908375,-0.00088471244,-0.04929527,0.025644094,0.07785501,0.08971466,-0.008043965,-0.08137468,0.030153852,-0.0011982741,0.014153542,0.022045907,0.0031668877,0.018283643,0.03693473,-0.011609991,-0.18071726,-0.014021482,-0.004484721,-0.019753322,0.15221967,0.0135484915,0.019876342,-0.059296884,0.023427004,0.0016118139,0.010521504,0.02487338,-0.017122358,0.0330447,0.0127081815,0.003393394,0.029254247,-0.0231807,0.030584857,0.015234122,-0.052064106,-0.017392285,0.019685691,0.0022811487,0.029258939,-0.027186945,-0.033114526,0.04511507,-0.018068472,0.009947604,0.015653519,0.006592631,-0.017299993,-0.027696926,-0.037734687,-0.02884172,0.008345671,-0.008625677,0.030947937,0.02799595,-0.004391787,0.028170094,0.0076333466,0.0040427493,0.01659209,-0.02334177,0.039032817,-0.010282068,-0.0018718797,0.01449193,0.041882914,0.00568297,0.00075619365,-0.023856137,-0.00863863,-0.002716097,-0.006950259,-0.009122071,-0.025143282,0.009761059,-0.03550884,-0.05408198,0.021135308,-0.019764893,0.016143009,0.00093333115,-0.019774769,-0.03136851,0.019559707,0.021028927,-0.01362834,0.04480502,-0.03764668,-0.004173753,-0.0004759227,-0.025858585,0.0700753,-0.0229,-0.016763773,0.017775608,0.017907985,0.05403488,-0.0018346137,0.015102518
zara_04.jpg,-0.012497239,0.030835083,0.035754673,-0.016478395,-0.020122837,-0.010642727,-0.0522896,-0.0007644016,0.061005693,0.009092291,0.025859857,0.016294595,-0.049847234,-0.02404497,0.0414132,0.026540339,-0.06002078,0.01249366,0.028840415,-0.008872918,0.009600737,-0.040107604,0.028106138,-0.037678808,0.016421983,0.018123377,0.045242947,0.012419,0.012749836,0.013876769,0.00899422,0.029994054,-0.03586033,-0.027399108,0.0006923938,0.037577257,-0.0022122427,0.037521113,-0.010267227,0.16617638,-0.04703285,0.049226645,-0.009348793,0.028510248,0.031815443,-0.0152119305,-0.00647224,0.0053437045,-0.013496123,0.04865749,0.014710766,-0.0074708248,-0.009270169,0.035209887,-0.034953535,0.00075498415,0.038450755,-0.0061479053,-0.014249862,-0.009744964,-0.03231064,0.0178894,0.0032575452,0.013066012,-0.030916438,0.05373498,0.0019807394,-0.058419403,-0.012345582,-0.01196003,-0.029354792,0.07503744,-0.0511229,-0.009987376,-0.03884544,0.016563984,0.02909097,0.021929855,-0.023276044,0.036067996,-0.03753161,-0.010663706,0.009210845,0.042363875,-0.034031153,-0.013964363,0.10415226,-0.050767824,-0.017652005,-0.0012006087,0.054805797,0.022568682,-0.58596534,0.060672,0.014142681,0.04674852,-0.0010358315,-0.03914376,-0.050192717,0.020387923,-0.012911419,-0.023204766,0.0018059296,0.006583037,-0.0076738256,0.010607395,0.06320322,-0.027274711,-0.050051544,0.004501693,-0.030508466,-0.06386933,-0.0042294147,0.031529702,0.033085566,0.05153962,-0.010481239,-0.013302867,0.04721072,-0.0053274925,0.042776667,-0.022586836,-0.00030986435,-0.015342104,-0.014986862,0.013650202,-0.029143978,0.010867072,-0.010874115,0.008416978,0.045869626,0.009335713,0.036859658,0.0732212,0.0065079,0.0435239,-0.0062726657,0.05400564,-0.012841422,0.004996213,0.007917156,-0.03757961,-0.022152074,0.023562672,-0.02817868,0.011753267,-0.017992329,0.029348087,-0.032482553,0.008976436,-0.022225775,0.015744666,0.14219226,0.020994414,0.03337515,0.014704326,0.009914968,0.025357762,0.01527558,0.02878297,-0.0006036117,-0.00042838525,0.022578942,0.015000456,0.05233373,-0.034136143,-0.020937053,0.062385935,-0.028984647,-0.047394745,0.04758751,0.045551296,-0.020291748,-0.011208593,-0.011466952,0.0063380026,0.054271907,-0.0022499438,0.045897994,-0.03935192,0.036663875,-0.0008773576,0.042660728,0.0003121306,0.011393294,-0.002759288,0.0061957478,-0.032665476,0.025285674,0.009650753,0.040519252,0.008847023,-0.030706469,0.009382086,0.00068039575,-0.03409969,-0.004154506,-0.00578433,0.026257047,-0.032868817,-0.018309267,0.016878566,0.018311767,-0.041344486,0.0039109653,-0.03286519,-0.03046186,0.00863403,-0.003613902,0.031439424,0.012195799,0.031567633,-0.04426483,0.03865496,-0.0051340912,0.0074212984,0.023539798,-0.0029789598,0.039611343,0.0023245772,-0.018417573,0.0041368883,-0.00890026,0.0065880395,0.013264991,0.026286917,-0.02271636,-0.0005996778,0.0021786562,0.012067638,-0.04623996,0.025040347,0.0015582336,0.020195134,0.009931464,0.01128041,-0.014841014,-0.0047906544,-0.018164812,-0.0042032683,-0.0470337,0.041438717,0.06695737,-0.018517494,0.009836973,-0.069266506,-0.004604454,-0.016482437,-0.052075706,0.010287829,0.018384641,-0.015660748,-0.0381941,-0.01560361,-0.019613503,0.015962679,0.019822905,0.038678993,-0.10994165,-0.0067988117,0.020063173,0.00038044952,-0.027336355,-0.039291006,-0.033689145,-0.0064482484,-0.028561823,0.022400336,-0.045646362,-0.036091797,0.025001802,0.0342682,-0.020755036,-0.025190236,-0.018168556,-0.0066000507,-0.03330704,0.011278731,-0.042885352,0.0069705783,-0.00886107,-0.020727564,-0.016335186,-0.0075497963,-0.0068552517,0.016951498,-0.030132253,-0.02714871,0.029003203,-0.01255724,-0.009981497,0.00029616558,0.037765145,0.0005477578,-0.048814867,-0.022970589,-0.03783809,0.004401456,0.010268346,0.039200135,0.02583495,-0.035763927,-0.0092977,-0.05153234,0.041417733,0.026217248,-0.06248182,0.024815332,0.01750629,0.020100378,-0.064619645,0.017130679,0.0729875,-0.012143095,0.0041810204,0.0028108011,0.034770098,-0.0023361344,-0.014463814,-0.016586415,-0.0036736818,0.11459583,-0.042401854,-0.056362543,0.005379497,0.008009597,0.01745931,-0.0053372877,-0.0013843217,-0.04085938,0.006041587,-0.021933211,0.02163818,0.0053282664,-0.030845338,0.006119592,-0.015447977,-0.018113984,-0.0134354215,0.04424169,-0.024631854,-0.03886616,-0.009797896,0.02353512,-0.0054151826,0.0056368997,-0.0026158139,-0.0073129917,-0.024370369,0.020635428,-0.015808837,-0.004590308,0.028128536,-0.028971778,0.006871384,-0.053887963,-0.008788335,0.081296474,0.017966378,-0.044280045,0.081068195,0.00937993,0.0095144,0.0048463624,0.112136506,0.009988473,-0.029280609,-0.059324577,0.016983813,-0.028502733,-0.020843253,-0.013035617,0.012570619,0.0046804873,0.050648645,-0.04077733,0.17825733,0.02222122,0.01003195,0.024719415,-0.028684843,-0.023258036,0.001729745,-0.041899238,-0.024227753,-0.005709045,0.0053641023,-0.033602003,-0.017970087,0.15587847,-0.04920494,-0.021904714,-0.012965717,-0.018492384,-0.011017012,-0.0029815196,0.023341926,-0.026440028,-0.016404115,0.0029023332,0.08134214,-0.012746377,0.005788144,-0.018338727,-0.0028377587,0.029331923,-0.013366696,-0.00041973044,0.07430702,0.00013949258,0.046118382,-0.03594751,-0.036576465,0.03451261,-0.029254429,-0.008942569,0.07670403,0.06525977,0.012431976,-0.064749,-0.010069234,0.025847396,0.036134236,0.005906339,-0.0026559478,-0.00017303156,-0.015055579,0.017812287,-0.27798122,-0.014142483,0.0107402485,0.021619534,0.122944616,-0.006216884,0.011049644,-0.032823958,0.02830665,-0.024142947,0.014535744,0.011585015,-0.0032141677,-0.0032347045,-0.020421408,-0.0010838856,0.014906554,0.0019425426,0.023378534,0.0170318,-0.061828587,0.005644596,0.04929774,-0.018423045,-0.0046833507,0.014438421,0.0019867197,0.036868803,0.010008248,0.013026377,0.0010227407,-0.01923112,-0.018192926,-0.015120901,-0.0015943234,-0.005658176,0.01086138,-0.01800214,-0.0047825812,0.004688307,-0.013587314,-0.008347355,-0.00954522,-0.0073557673,-0.0043937713,-0.06234257,-0.0005065678,0.013386122,-0.0018621803,-0.018761957,0.017959902,0.006892968,0.015167168,-0.024851957,-0.0027215201,-0.008350241,-0.028611386,-3.1453023e-05,-0.03990629,-0.0013665161,-0.02552736,-0.045220245,0.036749855,0.0291505,0.02533998,-0.0074758804,-0.027274363,-0.0331007,0.06486591,0.03125624,-0.012194361,-0.016456017,-0.0351741,0.0105288075,-0.045461874,-0.043020077,0.06757232,-0.032269955,0.008345162,0.002677723,0.004066486,0.014443607,-0.0073873987,0.03127623
zara_05.jpg,-0.01171931,0.024987541,-0.011008869,0.0012091909,0.013457166,0.054220945,0.027391154,0.054505967,0.033053998,0.04202147,-0.03439368,0.04091069,0.024507482,-0.013159234,-0.04139158,-0.0025459176,-0.07510952,0.004863684,-0.0076912376,0.014077981,-0.06934195,-0.020414215,0.009966171,0.02058876,-0.0036700552,0.029629136,-0.0031878564,-0.014935477,-0.010018986,-0.0072869617,-0.067363024,0.0060966555,0.017208852,0.001431029,-0.040049464,-0.0053966986,-0.023937073,0.030398885,-0.0077526867,0.113764346,-0.044340402,-0.04864853,0.029872935,-0.0048803785,-0.013750064,-0.083825186,0.02537082,0.021223515,0.08329391,0.027560603,-0.009255667,0.009498494,0.037313633,-0.035774376,-0.04394142,0.0077767777,0.035259932,-0.028036581,0.0126278205,0.03827177,-0.0027514135,-0.019594265,-0.015140252,-0.021403672,-0.03110003,0.0064817825,0.02248219,-0.0092147505,-0.03355562,0.011434173,-0.04754033,0.008993835,0.014859536,-0.022554476,0.026524596,0.0018321255,0.0005519574,-0.0040659313,0.017770631,0.0013794681,-0.01541168,-0.030632142,-0.03240367,-0.030660154,-0.016005237,0.01385333,0.052360363,-0.02516499,-0.07747845,-0.033308398,0.04727905,-0.016852852,-0.651944,0.048518,-0.034222756,0.05045958,-0.012268958,-0.030008715,-0.017033443,0.054152116,0.0014254963,-0.06959223,0.047214888,0.02539502,-0.01603032,0.02187979,-0.072929904,-0.011460707,-0.02265788,0.0049105855,-0.018153636,0.03773775,-0.0031093985,-0.012972528,-0.0050183227,0.0058314297,0.010938045,0.018646412,-0.01382327,-0.013540638,0.031044342,0.0153207155,0.017980814,0.0057248166,-0.018157383,0.014670198,-0.011335956,0.0025674228,0.0030158462,0.05690251,0.013407604,0.022115095,0.018731527,0.08456594,0.041891407,-0.0049231085,0.003030598,-0.023692625,-0.0047181603,-0.022778235,-0.024084339,-0.002609059,-0.0060831946,0.0060021156,-0.03885161,-0.017316222,0.004087101,0.026970357,-0.0021384778,-0.034677513,0.0089422045,-0.016455231,0.071319684,-0.038941003,0.017160455,-0.040378958,-0.011901709,0.044561397,0.025507266,0.051236656,-0.01225615,-0.022097655,0.0115962215,0.0009959963,-0.03991869,0.012366185,0.01870563,-0.0059168814,0.010498585,-0.01463364,0.02573385,-0.0025435279,-0.0063271825,-0.019057536,-0.008222968,-0.006642158,0.09568829,0.0004348327,0.04376301,0.01830464,0.046287674,0.019363062,0.018967517,-0.027637372,0.003186968,-0.007661925,-0.011222815,-0.006549973,-0.017544929,0.0010604024,0.007124696,-0.01784966,-0.02456389,-0.02184044,0.054607287,-0.03247938,-0.014580221,-0.037173565,-0.054725647,0.0067151766,-0.026784856,-0.014251655,-0.037781227,0.021022946,0.0021389434,0.017546317,-0.0486152,-0.038195148,0.03223036,-0.0206394,-0.013522002,0.08551238,-0.030001843,-0.024133382,0.003855013,-0.024509268,0.012868563,0.008904986,-0.014593463,0.000107533655,0.037095185,-0.062939115,-0.019063614,0.031889845,0.02003672,0.05570291,-0.016413772,-0.009171892,0.020025097,-0.0023871306,0.030546261,-0.008098557,0.024622405,0.017465271,-0.031702455,0.004264198,0.034502286,-0.043608766,-0.023661055,0.0003317413,0.0058826897,0.0010441983,0.029601196,-0.015783947,-0.0058020116,-0.020731688,0.032859985,0.022353936,0.00063319894,-0.00504717,0.008195145,0.010991638,0.016834479,-0.012080169,0.014505322,0.0055108056,0.013970993,0.018701648,-0.10117393,0.00510821,0.0053093457,-0.0049037673,-0.055376753,-0.00438692,0.0343769,0.005400794,-0.027033782,0.029892499,0.0127425995,-0.029169893,0.011997111,0.05038079,-0.011743803,0.00012328128,0.011738839,-0.004098493,-0.0056049675,-0.012399036,-0.0319153,0.009573729,-0.012732159,0.022142496,-0.0069256467,-0.032133702,0.000233578,-0.0060337256,0.12991397,-0.036780994,0.005624757,0.0042737755,0.029806737,-0.024101278,-0.025297632,-0.013065545,0.0011834799,-0.012684231,-0.01900397,0.0120693045,0.024582487,-0.0030304554,0.0028359324,-0.08216331,-0.00027438512,0.022800209,0.024012627,-0.06530967,-0.023335423,-0.018615773,0.003487526,-0.025816353,-0.015093721,0.05564327,0.084538385,-0.032320637,0.00068760343,-0.002592152,0.044122465,0.013282639,-0.011346159,-0.0662743,0.018779747,0.2219305,-0.020991428,0.019733543,-0.017878357,0.015969168,0.02133617,0.011298517,-0.019676082,0.021587845,-0.031273764,0.012841923,-0.00394447,-0.0529062,-0.009292743,0.011726997,0.02236453,0.021229437,-0.0048689516,0.010691247,0.014775981,0.0019169578,0.005674075,0.020633731,-0.026494466,0.0373902,0.05122904,-0.043076545,-0.011513402,-0.043175094,-0.015742414,0.023932049,-0.014345599,-0.029020159,0.010009977,-0.050830554,-0.011260502,0.045228798,0.0023967347,-0.028835403,-0.0022425738,-0.07400997,0.008021541,-0.006451516,0.04073481,-0.008316621,-0.004227556,0.041368354,-0.035559066,0.0056408797,0.0011893621,-0.008425615,0.004462598,0.012473987,0.02516348,-0.048243128,0.033034187,0.0031570438,-0.0386146,0.010180759,-0.028169647,-0.028040191,-0.06159496,0.003373947,0.018659022,0.02207318,-0.011435902,-0.0050245347,-0.032555,0.13577607,-0.087078616,-0.027530132,0.007819526,-0.013910964,-0.035844535,-0.048558574,-0.002778635,0.0012673333,0.009860678,0.04238327,0.001560092,-0.032282352,0.10421712,-0.036313903,-0.056568712,-0.017935844,-0.02119743,0.017207397,-0.009829068,0.0066460334,0.031127257,-0.017930258,0.0070091463,0.010472534,-0.028648509,-0.0034946005,-0.018522441,0.002864777,-0.008545389,-0.069633864,-0.028836679,-0.018582419,-0.0021773204,-0.031304255,0.022796215,-0.009614965,0.024885193,-0.021475011,-0.19943817,0.008018112,-0.022761486,-0.03328039,0.11187369,-0.010055648,-0.010902479,0.012351488,0.020273572,-0.0037049446,0.025963776,-0.036990795,-0.035362072,0.0028024917,-0.018227065,0.022067938,0.0011620233,-0.00836833,0.0014590864,-0.01788303,-0.044887353,0.023436833,-0.019498331,0.0044624265,0.05354843,-0.009076949,-0.021238854,0.021696456,-0.0018462567,-0.014478461,-0.007071273,-0.023596015,-0.017963538,-0.016473172,0.0021681539,-0.017286181,0.052885205,0.0040636947,0.04538673,0.0023526473,-0.0004899657,-0.014553229,0.0028478212,0.016529351,0.022338694,-0.054544456,0.007058588,-0.0023996131,-0.00759581,0.019469501,0.020087333,0.008477424,-0.004524849,-0.020072754,-0.0058416645,0.012479775,0.015501501,0.058165554,0.00030217002,0.04212696,-0.023869189,-0.021338556,0.02654224,-0.008965671,0.032050252,0.0320346,-0.0141116865,-0.018423855,0.018464122,0.03667754,-0.037485458,-0.026801389,-0.025422903,-0.007831874,0.0062643588,-0.0020496005,0.05114626,-0.022372184,-0.0010584514,-0.0016021014,-0.026846485,0.04890404,-0.017373318,0.032153703
zara_06.jpg,-0.027157364,0.031126011,0.01856669,0.0019181378,-0.003203373,0.018722815,-0.03218302,0.004164036,0.010790849,-0.0199404,-0.0010716725,0.06381593,-0.0040077223,0.01524916,-0.01055869,-0.008415726,-0.057777803,0.033957988,0.019792644,0.015585978,0.021406148,-0.023617191,0.01502817,0.0014325791,-0.019113671,0.017386405,-0.026875738,0.0146708535,0.014592522,-0.04561237,-0.019323453,0.008479012,-0.010868239,0.014800522,-0.004410816,0.01653651,-0.016821636,0.044597015,0.006782337,0.16387893,-0.08142807,-0.024434619,0.0022778767,0.0110047115,0.0069222227,-0.11722811,0.016395556,-0.002153599,0.03892717,0.023683146,0.052164145,-0.024096971,0.0365878,0.0024004977,-0.023828665,0.033091728,0.03589532,-0.0032801402,0.034436226,0.033956643,0.064194195,0.010704552,0.02630129,-0.022781456,-0.039462555,-0.016914034,-0.0047005666,-0.058678314,-0.004928113,0.011655332,-0.07239371,0.046387494,-0.0074399738,0.0023322145,-0.026755447,-0.0107674925,0.017266136,0.013587243,0.0012452772,0.028795328,-0.028577851,-0.05670166,-0.05880098,0.059686784,0.023481732,0.043306626,0.05283742,-0.061629932,-0.0028216734,0.019510506,0.03571873,0.0025478334,-0.53429663,0.061857477,0.0069157938,0.04039399,0.0034060315,-0.013916232,-0.004498113,0.11273664,-0.0752737,-0.037401557,0.05429274,-0.00787586,-0.042490453,0.010906996,0.010432948,-0.0034029905,-0.04477295,0.011661359,-0.026906598,0.053626053,-0.03478131,0.004040135,-0.0024315445,0.002845852,-0.034902073,-0.008804406,-0.013230045,0.004057232,0.03411387,-0.019150048,-0.03568953,-0.011775203,-0.031295575,-0.0041559003,-0.027182687,-0.0014662715,0.0042422293,0.036621388,0.008980646,9.610343e-05,-0.004909088,0.072653554,0.025888285,0.034711067,-0.002123505,0.031295568,-0.02716659,-0.032860003,0.01210709,-0.0507043,-0.011977083,0.030479206,-0.032992236,-0.0035406095,0.003235886,0.05069781,-0.010173821,-0.019541131,0.0047270455,0.02119023,0.084734336,0.01360597,-0.0073332605,0.014648488,-0.017522354,0.036554627,0.024532342,0.023678478,-0.05022718,0.02464578,0.014407916,0.020374404,0.0045945696,-0.038288638,0.07870181,0.0029655169,0.0076875594,-0.03830679,0.0032409274,-0.016646592,0.031833176,-0.035752624,-0.023606444,0.018660892,0.07806182,-0.008232496,0.069714956,-0.04071021,0.09461673,-0.0076833065,0.044115182,-0.014417467,0.015997924,-0.003118462,-0.014991262,-0.042712197,-0.045285884,-0.04756236,0.004796689,-0.022732647,0.0020978115,0.008110629,0.053465474,0.0037337136,0.013489788,0.027611148,-0.03134607,-0.01868101,-0.028752064,-0.009642205,-0.011740427,-0.024180138,-0.01381566,-0.0018768406,-0.0826639,-0.057360873,0.0062990533,0.035651535,-0.033821493,0.08572131,0.024337612,-0.027293174,-0.062340304,0.008882943,0.019876303,0.024701146,0.010584736,-0.033880427,-0.018804237,-0.043361522,-0.030219378,0.015363022,-0.00073631894,-0.013958857,0.07001896,-0.022300426,-0.013423548,0.031838305,0.022209538,-0.033729896,-0.00066313363,-0.0033193284,-0.0157316,0.03405058,0.011213824,-0.056585953,-0.02120657,0.01271013,-0.011612316,0.015985247,0.046229284,-0.06512186,0.034355883,-0.016305666,0.010541242,-0.0045938115,-0.015479973,-0.005512028,0.01718146,0.004838175,0.012522173,0.019757848,-0.013858915,0.038718276,0.006282606,0.018675337,-0.14886028,0.0019974206,0.029022327,0.02798199,0.010865408,-0.015053956,0.0068615978,-0.0017135037,-0.033037163,-0.007615573,-0.023114752,0.01374303,0.034255262,0.059244134,0.038338985,-0.027726948,0.012805721,0.008115124,-0.006488099,0.0015606196,-0.044432122,0.027604066,-0.030275496,0.012819644,-0.063108474,-0.041843858,-0.014854861,-0.01640071,0.070185065,-0.023833819,-0.018466622,0.016313996,0.022101318,-0.019742876,-0.012062804,0.012988877,-0.038511697,-0.025832027,0.005290129,-0.011584096,0.047083065,-0.006486567,-0.01702099,-0.042102747,-0.0064702835,-0.014942932,0.0014850612,-0.011801089,0.002263325,-4.1679472e-05,0.011316316,-0.03440598,-0.0062271096,-0.0335173,0.07241827,-0.03633495,0.015391954,-0.046644535,0.007222755,-0.006609259,0.007856616,0.032179855,-0.033751376,0.20912838,0.004298967,-0.060226876,0.020443687,-0.027977675,0.0755989,0.016846683,-0.009508925,-0.0469498,-0.008609587,0.017074961,-0.005536577,-0.016684996,-0.025550263,0.031275433,0.040921804,-0.0068171555,0.0018432697,-0.02413919,-0.021825127,-0.035921883,0.021737108,0.008684213,0.0027326709,0.01318858,-0.04191205,-0.058715492,0.00069747044,0.007212725,-0.029119154,0.007920733,0.0029116091,-0.009966286,-0.0049239653,0.035495184,-0.025874373,0.0332734,-0.023082241,-0.05813116,0.04330401,-0.02659359,0.017866725,0.04831697,0.001036724,-0.0042399447,-0.03125694,0.02013145,0.0033806763,-0.024698228,0.013862321,0.008449955,0.005634848,0.0058907587,0.018407106,0.014417149,0.11632119,0.009372771,-0.0017243888,-0.041447606,-0.025891807,-0.019465098,-0.023624077,-0.029718926,-0.04502138,0.008927036,-0.006819065,-0.0017550685,-0.0155049255,0.096926935,-0.13488798,-0.062327337,-0.017664067,0.040691916,-0.056361932,-0.0036802157,0.021684531,0.020785859,0.015916737,0.05569092,0.04519126,-0.006161227,0.06075233,-0.050553445,0.0054858127,0.011184289,0.02236097,0.00708664,-0.00070869585,0.022607937,0.014327865,-0.043595478,-0.018313948,-0.019417142,-0.07395171,0.044790328,0.06493345,0.041218214,-0.014536359,-0.07109846,0.03352646,0.024772067,0.015609085,0.019919235,-0.002335537,0.026823139,0.020338053,0.017069517,-0.19490571,-0.01377312,-0.0347285,-0.013358064,0.21832055,-0.012394195,0.012832143,-0.015209025,0.015927095,-0.008541554,0.029277818,0.01620504,-0.033123773,-0.010119103,0.038199417,0.01092389,0.016925717,-0.01207633,-0.010955838,-0.039688405,-0.04971659,0.03250512,-0.0156525,0.021472046,0.03834805,-0.042671636,-0.026228616,0.035985097,-0.0325924,0.01037221,0.016228931,-0.01312005,-0.017207533,0.03104113,0.005366105,-0.027594576,0.021781774,0.026999364,0.024123518,0.018443367,-0.036171496,0.008972538,-0.041126706,-0.002074379,0.05441066,-0.069187395,0.0020934944,-0.047064785,0.03310273,0.037135404,0.022391759,0.019191412,-0.027914219,-0.016841691,0.0052726367,0.021140702,0.022108434,0.027470777,-0.03976362,0.026476797,-0.027471114,-0.048585877,0.043118622,-0.014653944,-0.0013192645,-0.018229796,-0.051506817,-0.05020873,0.04196148,0.012940368,0.024973128,0.009833142,-0.016078603,0.01624613,-0.012794007,0.010364963,0.034410372,-0.028103834,-0.04332029,0.015037215,0.014737837,0.0288894,0.0062207337,0.04675248
zara_07.jpg,0.0033578393,0.025224067,-7.575776e-05,0.04090545,0.002166279,0.04920426,0.018568333,0.02571271,0.050495762,0.02069938,-0.010255933,0.02216236,0.00064731267,-0.0060395943,-0.03842403,0.033545922,-0.019750671,0.03286634,0.020930052,-0.021518428,-0.010438846,-0.014820897,0.02043914,-0.025807388,-0.0035246504,0.031360213,-0.018195031,-0.027317502,0.016247174,-0.066487394,-0.03622165,0.024616325,-4.8816055e-05,0.03583524,0.023140466,0.0043969643,-0.04468808,0.023782473,-0.0043173083,0.11772252,-0.06982533,-0.022167653,0.01110128,0.0008349047,0.010264902,-0.075927876,0.0090661915,0.013833519,0.056870557,-0.024786687,0.01844462,-0.030381825,0.04609593,0.007949315,-0.059489004,0.032747824,0.030363811,0.006728067,-0.006534155,0.05584806,0.015614861,-0.010012662,-0.0029757814,-0.010889443,-0.028032579,0.00024184115,-0.02226105,-0.05618143,-0.009123898,-0.0004900689,-0.0426456,0.004212943,-0.0015930329,-0.025821622,-0.003093945,0.004704872,0.028696118,-0.0021669085,0.003923895,0.018399226,-0.013520097,-0.054624,-0.05988007,0.00925812,0.035680965,-0.00617334,0.055867873,-0.06734845,-0.009484179,-0.013540915,0.049941495,-0.00652388,-0.6426024,0.067421176,0.002701275,0.040025678,-0.021469584,-0.018934866,-0.02494366,0.05137892,-0.029859938,-0.050384127,0.044170074,0.0032601745,-0.04786136,0.011190482,-0.03338166,0.010111405,0.010108068,0.0060786726,-0.0068287775,0.045475386,-0.01339241,-0.0050393967,0.010154677,0.0039859777,-0.006483649,0.021469912,-0.023170516,0.0070698424,-0.012872189,0.011562184,-0.01789969,-0.012462591,-0.030702343,-0.0063280007,-0.0027579623,0.021405483,-0.00035590044,0.01984397,0.0022523883,-0.003735937,0.026587427,0.07705054,0.034730956,0.0083185425,-0.0058334786,0.01369387,-0.008923137,-4.045996e-06,0.0027629777,-0.012976939,-0.025074096,0.0036593894,-0.04655835,0.015505975,0.00032827316,0.030558728,-0.0057419315,-0.033480644,0.021820178,-0.007971588,0.12497916,-0.019369746,0.021003967,-0.018952437,-0.0055006114,0.022533767,0.025404016,0.021551698,-0.026768915,0.008033409,0.038796335,0.01956805,0.002572743,-0.019096509,0.04837384,-0.024489019,-0.022974977,0.009031419,0.007681198,0.009075171,0.003369104,-0.0058366447,0.013168883,-0.021912886,0.13443814,0.008882364,0.029924497,-0.021257667,0.06452974,0.02310762,0.039489467,-0.03079059,0.011784662,0.019397506,0.0008112512,-0.04001072,-0.042473074,-0.015931772,0.009735235,-0.0092568295,0.0014260454,0.011018432,0.06374206,-0.03915539,0.017704984,-0.0066860844,0.025889782,-0.020560352,-0.037630014,-0.010405673,-0.015153685,-0.0049011237,0.020994429,0.012307909,-0.07138585,-0.029530909,-0.0064513944,0.045843195,-0.017409727,0.111411825,0.00781973,-0.0061286334,-0.013241493,-0.0074365563,0.0032865417,0.059260674,0.016858712,-0.016143896,-0.00852042,-0.076276764,0.01477344,0.043311387,-0.0067080846,0.014854383,0.03293821,-0.0042629153,-0.009457629,-0.0075713783,0.03726871,-0.013700186,-0.0018932987,-0.004275505,-0.016815947,0.0035798491,0.0152245695,-0.018222192,-0.012984187,0.0070046056,-0.004183285,0.023258727,0.041062612,-0.054782473,-0.00069803,-0.016831793,-0.029904172,0.024701761,-0.03882934,0.0043495023,0.02854062,0.0053290455,0.0049126255,-0.009617724,-0.022638863,0.022743061,0.011181596,-0.007981703,-0.1393196,-0.010418892,0.032330226,0.0070224353,-0.044545345,-0.03719736,0.014467647,-0.031185482,-0.0194374,0.0086265365,0.0065946067,0.014887715,-0.00078772224,0.044776596,0.0049417596,-0.042006794,0.009846477,0.013719373,0.003897506,-0.003377486,-0.030953536,0.011421568,-0.02238349,0.0043145986,-0.06248483,-0.006817647,-0.020877587,-0.035980698,0.09645417,-0.017156392,0.0050523086,0.002013177,0.045823008,-0.02261155,-0.027698433,-0.0038237178,-0.039722253,-0.018307926,0.003826808,0.017161373,0.04245916,0.024605189,-0.026331019,-0.029457793,0.024376879,-0.0040263487,0.020137992,-0.04984994,-0.0027126127,0.009215021,-0.0065194448,-0.0068977387,-0.025604203,0.04745032,0.0769975,0.013445035,-0.0112620555,-0.022618467,0.04084701,0.014765778,0.009578698,-0.011982021,-0.01264013,0.23940204,-0.022088276,-0.07303622,-0.0037396306,0.000574826,0.011256919,-0.017015135,-0.022441782,-0.0001305079,-0.027347235,0.015161175,-0.028240714,-0.02126167,-0.013489561,0.018717451,0.007334106,0.0016400934,0.043802824,-0.0012799909,-0.02026774,-0.033750642,0.010577051,0.031165957,0.0047175786,-0.017847164,-0.003718883,-0.022007678,-0.012191525,0.0066504413,0.014990124,0.010786231,0.018545488,-0.021440674,0.018862477,0.016963627,-0.06208276,0.07136719,0.003565558,-0.035018593,0.09559605,-0.046039417,0.023439625,-0.006607568,0.062393855,-0.016696982,-0.0073945723,0.035337795,-0.018013434,0.0055348384,0.018512335,-0.01805392,0.017763196,0.031086441,-0.006328536,-0.027746787,0.06384251,0.00550899,-0.045907,-0.005410224,-0.014001177,-0.050340235,-0.052273154,-0.046413448,-0.02106145,0.007473588,0.009195313,-0.0073988466,-0.019092817,0.07828576,-0.077551045,-0.0141125275,-0.015720874,0.03946611,-0.062356915,0.001073852,0.004221171,-0.009646394,0.018959176,0.04797121,0.034966327,-0.011905166,0.12980083,-0.03741048,-0.016439458,0.0049517937,-0.009384074,-0.021407954,0.026389968,0.0050607566,0.021706467,0.022970684,-0.0022448634,-0.001959291,-0.035702802,0.026053373,-0.008243234,0.04260385,-0.031547554,-0.07332361,0.037718937,-0.0003938059,0.017471232,0.012861562,0.020232638,0.02477594,0.03165242,-0.00408055,-0.15553114,-0.021951737,0.019866358,-0.011543409,0.11853481,0.0050611366,-0.02007706,-0.020484192,0.048848767,-0.014792751,0.051584408,0.0018415826,-0.013509024,0.036995254,0.023268737,0.035944223,-0.000838326,-0.029050257,0.0016391851,-0.0099028945,-0.03279997,0.01099554,0.007626377,0.006461678,0.018628342,-0.0044214176,-0.017032417,0.023472654,-0.04913075,-0.005805486,0.011043414,0.021747889,0.020500371,-0.028067745,-0.0018914691,-0.004841435,0.019625017,-0.0055995593,0.05278551,0.006672341,0.0013596865,-0.0023557723,-0.019514715,0.002193914,0.007011134,-0.054847565,-0.0012531697,-0.017108584,0.014583242,0.054677825,0.03163768,0.025917921,-0.0020761965,-0.021451242,0.034402214,0.017562788,0.018638115,0.003423105,-0.026866052,0.024841728,-0.014472113,-0.05585518,0.038454138,-0.023081144,-0.011753015,0.014441498,-0.010641489,-0.01678209,0.0012264841,0.02355212,-0.010419557,0.0100516565,-0.018628068,0.018157378,-0.022759713,-0.0028366533,0.024049323,-0.012832618,-0.019254427,-0.001166407,-0.013848111,0.06096124,-0.01505324,0.028428692
zara_08.jpg,0.0008799261,-0.0010757742,0.004476348,0.020835644,-0.01258176,0.05397582,-0.029096704,-0.028150164,0.044446096,0.046220265,0.008815861,0.010500436,-0.035627227,-0.011686667,0.04271734,-0.041224424,-0.05759539,-0.0031063692,-0.00596657,-0.029462846,-0.0379781,-0.01081206,0.024741357,0.01510677,-0.029692564,0.027146604,0.03424704,0.0452717,0.0013964316,-0.020154499,-0.032720167,-0.016782796,-0.023288721,0.027327674,0.0034995321,0.019294113,-0.011675422,0.035896797,0.011291474,0.1875916,-0.027695078,0.0006254933,-0.024601402,0.014679305,0.04789031,-0.087816335,0.024472728,0.046409234,-1.1579392e-06,0.046647985,0.06336865,-0.03246544,-0.01573478,-0.0072904527,-0.05682475,0.025639486,0.04316218,-0.016128436,-0.0031962737,0.023725262,0.023240104,0.031586483,0.024047248,-0.012613289,-0.029444482,0.024998276,-0.01809011,-0.06451954,-0.009382574,-0.0072283205,0.001965325,0.029092666,0.0015361683,0.002584396,-0.003878838,0.03791779,0.025826924,0.0015794447,0.01407926,0.033288155,0.01789833,-0.025522044,0.045578018,0.022009555,-0.011615343,-0.0018293194,0.13455707,-0.031094223,-0.035226133,0.009804613,0.03454585,-0.016185934,-0.5898384,0.013729659,0.014405623,0.041298844,0.0063301455,0.038542856,-0.01655737,0.10435988,-0.014887827,-0.013668164,0.010332088,0.0008012759,-0.008214979,0.0109663885,-0.030754734,-0.019987665,-0.02269823,0.043336835,-0.01847514,-0.016148854,-0.011208453,-0.005568226,-0.02363251,0.01572503,-0.002256865,0.03245547,0.044555575,-0.016081301,0.054915875,-0.009318551,0.0056123883,-0.0062847906,-0.028482882,-0.0077941124,-0.029442415,0.019810757,0.0015537734,0.04311469,0.027142044,0.0018726876,0.021173634,0.069202706,0.010417506,0.01003127,-0.013924022,0.00638677,-0.053437695,0.016736811,0.0024507297,-0.0071944357,-0.040264826,0.04391321,0.002952882,-0.02659233,0.0043374957,0.05069767,0.021532986,-0.0134145105,-0.017084716,0.008430141,0.16598196,0.019631036,0.017977007,-0.026592487,0.0022231075,0.014551122,-0.004881394,0.048138633,0.0115482025,0.00404017,0.023913722,-0.0014388253,0.018117955,-0.033788152,0.02181475,0.032579318,0.0056011504,-0.010572175,0.00019810094,-0.002325909,0.008478079,-0.03348909,-0.01704617,-0.006815854,-0.0035419909,-0.02265633,0.028199056,-0.014884966,0.0823069,-0.013280857,0.06729112,-0.01661038,-0.037095018,0.027919285,-0.0023950618,-0.01884626,0.0014109879,-0.014842028,0.008238566,0.028288158,-0.021414561,0.019983573,-0.0071448134,-0.01594025,0.0006607858,-0.023189895,0.045128804,0.025568776,-0.009261921,-0.004004049,0.015180142,0.009837885,0.008167273,-0.018088154,-0.045009073,0.01905052,0.01179954,0.024040965,0.03666204,0.06493657,8.643996e-05,-0.0032994922,-0.07654968,-0.008448711,-0.043197077,0.012147639,0.013767168,-0.030575978,-0.026675928,-0.025994042,-0.028484164,0.008954573,0.008068454,0.047037598,0.033060964,-0.02397754,-0.02220283,0.010801946,-0.01912959,-0.007926433,0.03260037,0.035743803,-0.017752117,-0.07754067,0.017149322,-0.061705794,-0.029496029,0.008493397,0.020066543,0.022763032,0.04402466,-0.0545517,-0.010182184,-0.0051709856,-0.022855023,-0.010550278,0.010158754,-0.019617388,0.00048682606,-0.00065125833,-0.009220103,-0.012111124,-0.008236244,0.033727776,0.011259836,0.012331315,-0.15632515,0.0051278113,0.039220545,-0.011945094,0.0097063,-0.012053196,-0.007934248,-0.027097413,-0.017342117,0.018823592,-0.00019478345,-0.0028278239,0.011343015,0.02695222,-0.0031369703,-0.027705526,-0.0024574876,0.018607086,-0.034977444,-0.013050011,-0.016978294,0.013507949,0.0061889775,-0.037103068,-0.109448075,-0.015578249,-0.012247884,-0.00043034332,0.051992778,-0.004029561,-0.0029254304,0.0017346686,0.0053724665,-0.006800793,0.026592392,-0.018500317,-0.06380916,0.0102347145,-0.03599701,0.015435023,0.0030969123,0.0048279776,0.008033034,-0.020103572,-0.0068315165,-0.03345151,0.01976822,-0.026758801,-0.011734724,0.041323688,0.012346302,0.0030185413,-0.03365701,0.00042086557,0.06910623,0.0014697255,-0.0026043302,-0.023713695,0.034839556,0.0050537335,0.0027300126,-0.06027076,-0.003656893,0.14575303,-0.016598238,-0.025487963,0.012924223,0.029453002,0.03105404,0.014215333,-0.008365247,-0.034772243,0.008258452,0.010698904,-0.031133415,-0.012115894,-0.020948205,0.035743613,0.0027738959,-0.012947864,0.011075422,0.022387637,-0.0025966857,-0.038173158,-0.010001223,0.07124262,0.005208774,-0.015049907,-0.0009645255,-0.0018554581,-0.0046470365,0.03102595,0.0059640203,-0.0067597777,-0.0018128685,-0.033987563,0.007918105,-0.06723112,-0.02540431,0.059660997,-0.0133285215,-0.029148363,0.07392761,-0.018590935,-0.025703141,0.043119635,0.046783123,-0.015749358,-0.012917068,-0.089525715,-0.029723473,0.008781013,0.0047907415,-0.02052365,0.04446073,0.01601805,0.02582422,-0.054323725,0.091123015,0.0054338914,-0.028091809,-0.0103891725,-0.025780248,0.007694013,-0.019812364,-0.015358086,-0.014786844,0.026863178,0.0028477777,0.01191739,-0.023484703,0.24665476,-0.048034977,-0.0070106233,-0.032756545,0.00065182504,-0.018881667,-0.010607668,-0.0140744625,-0.00016981814,0.04502637,0.019009888,0.025246108,0.018722579,0.1076329,-0.018930823,0.048012853,0.01524894,-0.023303904,-0.04396968,0.013158703,-0.0071359887,0.027100623,-0.03135576,0.018447,-0.011638064,-0.056277156,0.00579851,0.086362556,0.047060814,-0.0033236803,-0.05505113,-5.134015e-05,-0.01137197,0.033314824,0.04535509,-0.015115435,0.0065039503,0.05453576,0.0076713515,-0.12085326,0.018237155,0.0007020552,-0.00021808546,0.17847292,0.016633376,0.025405964,-0.044313677,0.014493873,-0.0028724715,0.026371213,0.0123697175,-0.024315374,0.023645338,-0.01467133,0.014022362,0.009016611,-0.040570177,0.020113034,0.0154438,-0.005212568,-0.011238537,-0.008908055,-0.018504187,0.02405059,-0.011492179,-0.015041061,0.013731639,-0.0014961923,-0.004739035,-0.002251974,0.011800653,-0.013362426,-0.017423656,-0.05700761,-0.029268874,0.026552958,-0.008184446,0.025132174,0.03345755,0.013878712,0.046557438,-0.0016002662,0.0076473793,0.008638203,-0.033304818,0.06285608,-0.0028064344,-0.0075980676,0.0071756416,0.01569155,-0.009291956,0.008683085,-0.02976171,0.010764947,0.0004454749,0.02618129,0.017456505,-0.03475812,0.017734036,-0.048892073,-0.034262516,0.0002940269,-0.016346805,0.035565574,-0.01838219,-0.013483263,-0.007307634,0.017549638,0.029091166,0.014565365,0.04081647,-0.036968917,-0.026640065,-0.0074837664,-0.00954468,0.0800704,0.008102108,-0.008797348,-0.004646312,0.040408045,0.02504058,-0.017359635,0.021902688
zara_09.jpg,-0.013263774,0.0060248678,0.00058640336,0.025026731,-0.0022569573,0.019059284,0.006735625,0.019240806,0.01912205,-0.0061691296,-0.021802537,0.042708535,-0.042523455,-0.02071737,-0.0020355016,-0.010487661,-0.023469547,0.018097546,0.010882636,0.019666772,-0.05670391,-0.025226608,0.006037547,-0.0015242619,-0.0010084381,0.026853789,-0.03865074,0.030952951,0.001042789,0.0032978775,-0.021007694,0.008517609,-0.03928689,-0.0007518194,-0.021512097,0.0110593885,0.007964208,0.07311039,0.026894817,0.15569526,-0.07228783,-0.012477622,0.022725938,-0.03982588,-0.017276185,-0.09284896,-0.0059731086,0.019088661,0.06108742,0.024449607,0.029542034,-0.004473428,0.060206115,-0.017001819,-0.051379044,0.025954498,0.025492603,-0.0009605377,0.02114084,0.020064697,0.0055062165,-0.008384447,0.020321557,-0.008371317,-0.029833859,0.007664515,-0.002246499,0.025040358,-0.012771852,-0.010003331,-0.0037104269,0.009546508,0.010481293,-0.0034566321,-0.0011603375,0.009343789,0.015731407,0.0096966,0.04287254,0.01873368,-0.02531026,-0.08383947,-0.058932833,0.025553232,0.023483353,0.03574848,0.026011944,-0.038903557,-0.04239456,-0.019557659,0.029867817,0.0031560084,-0.56569445,0.08915501,0.015665343,0.031056426,-0.012009405,0.020497266,-0.039095405,0.06247486,-0.02046799,-0.044280652,0.041514993,0.01421394,-0.05613507,0.027783409,-0.029798696,-0.019238131,-0.028743386,0.032692958,-0.02410487,0.070331566,-0.029181605,-0.022716586,0.012197358,0.009708803,-0.04918762,-0.030579628,-0.0017133201,0.04050732,0.030255124,-0.036900003,0.0077659055,-0.018676817,-0.02494328,0.003933769,0.01051643,-0.00278237,0.0063440325,0.06383596,0.02302214,0.0253066,0.0031196165,0.07749696,0.025804814,0.009083082,-0.008744583,0.0056168665,-0.019312464,-0.03402793,-0.0130897965,-0.03382848,-0.022476034,0.03085029,-0.029584587,-0.027232368,-0.014754366,0.07427233,0.0060122814,-0.026415724,-0.0067510013,-0.021454865,0.0742154,0.01764612,0.004522627,-0.018836409,-0.02099323,0.0041540028,0.029729098,0.0175969,-0.029416686,0.024763064,0.0332175,-0.02040339,-0.005605381,-0.039109655,0.04858933,-0.011049237,-0.0009701578,-0.004857567,0.009303605,-0.023279155,0.0072120777,-0.008111428,-0.01005055,0.021221228,0.09125382,-0.019236797,0.048304975,-0.013607089,0.07143608,-0.018345267,0.05452345,-0.003191374,0.010587405,0.014439476,0.00025188088,-0.019464435,-0.03643648,-0.002351397,0.0033033073,-0.03962755,0.01988579,0.0021103735,0.04703614,-0.02321887,0.021916158,-0.013850877,-0.012948496,-0.020451969,0.002853461,0.0014024458,-0.009298391,0.01828766,0.005227863,-0.016834674,-0.04771873,-0.022643344,0.008482924,-0.009879603,-0.027742447,0.09049894,0.0012255828,-0.031270187,-0.059631888,0.004939146,0.025081912,0.037324414,-0.010374951,0.0026485845,-0.02209456,-0.012372917,-0.009339671,0.046333212,0.008302434,0.02578573,0.047149,-0.037303057,-0.0037695407,0.04184514,0.016828742,0.0055977786,0.036659192,-0.038467217,0.006310542,-0.021955237,-0.024470856,-0.064202525,-0.043253087,-0.020231636,0.01757112,-1.7387772e-06,0.04275899,-0.056535628,0.013245631,-0.0332302,0.02679149,0.035408963,0.011425158,0.006540087,0.008186767,-0.004132012,0.005336596,0.0011446931,-0.010097747,0.038686395,0.014407817,0.030117055,-0.10235003,0.0057020728,0.0035170373,0.009419955,0.0033328363,-0.027951147,-0.005732299,0.009823084,-0.054520123,-0.016723244,0.045470923,0.008359271,-0.029604785,0.043425556,0.040158764,-0.024247693,0.0036179835,0.027324101,-0.03702337,-0.011630077,-0.01837528,0.031509764,-0.053467944,0.0069737574,-0.05478054,-0.059533678,0.010023021,-0.02318267,0.1332733,-0.03895934,-0.0058960454,-0.00042297938,0.05264637,-0.04318171,0.0017040796,-0.010763731,-0.023023749,-0.034336023,0.0046090544,0.038996223,0.022922102,0.007784626,-0.03897187,-0.06920734,-0.0030081582,-0.019258138,0.0073378193,-0.06168739,-0.002475393,0.022115435,-0.022260476,-0.02324926,-0.011778125,0.0043366374,0.07721984,-0.020414378,-0.0041507636,-0.04531796,0.021494804,0.014462515,0.019674119,-0.02189644,-0.00022833474,0.27556428,-0.004479985,-0.025706131,0.026087822,-0.019641086,0.042917747,0.015714964,-0.041131746,-0.029590568,-0.0023976625,0.013205365,-0.021304809,0.0027657594,-0.012521782,0.016110854,0.0153213,0.010982877,0.01184226,-0.02084631,0.0031966572,-0.0071208305,0.010427548,0.022345224,-0.043264024,0.032938667,-0.036601987,-0.015300676,-0.014012392,-0.022026233,-0.004336307,0.017805768,-0.036546294,-0.027993927,0.004015904,0.0009691163,-0.025608368,0.024598015,-0.023334047,-0.07743791,0.063801415,-0.041146684,0.00792832,-0.00059846515,0.07072007,-0.01367671,-0.03123445,0.027932074,-0.030138073,-0.03504626,0.0129262805,-0.030459281,-0.02370769,0.021471875,0.022665355,-0.0052197133,0.09564412,0.010546678,-0.013056759,0.0047174576,-0.017015139,-0.017958188,-0.026771633,-0.010770108,-0.006385872,0.021163182,-0.007754828,0.0074936496,-0.003777606,0.081413746,-0.119266115,-0.044629596,-0.018690865,0.029382803,-0.011066966,-0.016706787,0.0095572565,-0.022715379,7.018784e-05,0.056531765,0.037918568,0.0049460125,0.09934886,-0.0523085,-0.014731989,-0.004723254,0.016786702,0.020224126,-0.029218044,-0.004052084,0.06556412,-0.03335882,-0.022310194,-0.0016811948,-0.08381387,0.022418631,0.042154927,0.04712071,-0.04349744,-0.07585669,0.020034188,-0.004658968,0.013107538,-0.017767822,0.0008806681,-0.008222159,-0.009497392,0.009982968,-0.14987682,-0.040018503,-0.024056572,-0.047354393,0.17107788,-0.033915553,-0.008356057,-0.006959738,0.028107896,0.0049033477,0.028204685,-0.027377587,-0.0064921356,-0.009000051,0.013745756,0.030537,-0.025287878,-0.03147945,-0.04339928,-0.034713488,-0.00087014056,0.028767569,-0.025256893,0.046297695,0.07737263,-0.019655213,-0.03735326,0.04155988,-0.054196008,-0.010342512,0.014642558,-0.0046324576,-0.0271585,0.018555101,-0.012941029,-0.023480799,0.04107444,0.036887065,0.039629582,0.025630146,-0.036431387,0.0314958,-0.012423898,0.020839801,0.054791745,-0.08929038,-0.025434526,-0.051712643,-0.022892796,0.0028883424,0.009731251,-0.003981788,-0.01406885,-0.031980507,0.012964173,0.019082608,0.008742238,0.051662378,-0.023809344,-0.0031886525,-0.039236322,-0.029973729,0.03439353,0.00814404,0.0005186248,-0.014242275,-0.036301132,-0.041231077,0.008920222,0.002074823,0.014845398,0.008652798,-0.009488573,-0.0012227889,0.0095671415,0.00028420222,0.03031987,-0.02626178,-0.05030153,0.0020658188,0.0059881476,0.0557458,0.0033226183,0.052312754
zara_10.jpg,0.017300347,-0.007069505,0.005697811,0.0482699,-0.025698155,0.022308644,-0.042951487,0.04735308,0.05104519,-0.0059668804,-0.0083502,0.012354753,-0.0007236637,-0.040328443,0.0030262012,0.007932244,0.009024339,0.022968091,0.004688007,-0.01941569,-0.010583233,0.016237274,-0.006877746,-0.022410544,0.0003977019,0.026783686,-0.0058338074,-3.5496705e-05,0.006356203,-0.0015112675,-0.016786143,-0.042603802,-0.04578871,0.0086974995,0.026878871,0.006001801,-0.014916501,0.018745108,0.0010194038,0.13932367,-0.047523014,-0.018946271,0.01720308,-0.003819978,-0.005832578,-0.07748707,0.0018364587,0.004997936,0.018546054,-0.011373935,0.05439554,-0.0062960754,0.013609825,0.015223629,-0.03010026,0.013352044,0.019159382,0.04238616,0.02668287,0.040084723,0.029399201,0.035244446,-0.014083424,-0.006504414,-0.017540986,-0.012476379,-0.014306556,-0.03270879,-0.006461472,0.021551626,-0.008066213,-0.012523912,-0.022676153,0.039879445,0.022834009,-0.030523477,0.034031313,-0.00096334534,0.02983271,0.012071212,-0.038851768,-0.077206194,-0.05075275,0.03282471,0.017162,0.025151856,0.0046933233,-0.07049516,-0.033689275,0.004449342,0.03393211,0.041793235,-0.6184916,0.035124123,-0.008257031,0.04582553,0.003178735,0.04940436,0.006294517,0.11295332,-0.044334155,-0.039515294,0.015683677,-0.008659259,-0.033505443,0.02028078,-0.034995936,0.00053796114,0.021696603,0.027500324,-0.012830887,0.061173815,0.00034890024,-0.02396705,-0.014842455,0.012417233,-0.024279157,-0.019545574,-0.020572959,0.0069729104,0.021293974,0.001879316,-0.01388485,0.027232315,-0.026796594,-0.016662056,-0.01864649,0.028662162,0.016624795,0.049399685,0.010563624,0.031381488,0.018522885,0.078575976,0.036838897,0.0024483646,0.008926247,0.0008819734,-0.029280376,-0.016103445,-0.01774564,-0.036026534,-0.028648475,0.018768951,-0.010936904,0.008434053,0.0020901305,0.04472817,0.0065723867,-0.00841884,0.015422014,-0.0041610654,0.14822714,0.008882303,0.003512182,-0.03668089,-0.013155071,0.012905206,0.011799462,0.033578057,0.0040160804,-0.001742599,0.02540245,0.0012978234,0.009605477,-0.02063308,0.048494246,-0.005286264,-0.011902582,0.0005168334,-0.026293349,-0.0034676283,0.012506467,-0.02339836,-0.009309288,-0.008999214,0.11404833,-0.0040848437,0.036969982,-0.021666503,0.08085626,-0.004324282,0.061090857,-0.022651793,-0.0012014277,-0.005470516,0.0073988754,-0.018018883,-0.01811371,-0.00086768385,0.008381433,-0.00950411,-0.02537061,0.03960773,0.057239972,-0.012027071,0.0044814367,-0.00061242195,-0.0027581132,0.026694348,-0.031212354,-0.0045321486,-0.007372669,0.021339348,0.007326812,-0.03541146,-0.08424485,-0.004388936,-0.0035529265,0.045616675,-0.023961365,0.07308747,0.01748919,-0.024560697,-0.065183185,-0.0054780855,0.021466559,0.04282209,0.01274707,-0.00950619,-0.03959509,-0.03493011,-0.018515697,0.025378406,-0.02506087,0.03171907,0.046435162,-0.052955963,0.007416533,0.033703357,-0.0076720403,-0.019854207,-0.013762748,-0.0013093981,0.020071765,-0.0043572527,-0.0010862137,-0.02811616,-0.014397771,-0.017738257,0.010300925,0.00664915,-0.011877434,-0.0031235733,-0.007226273,-0.03208539,0.000998511,0.0065470734,0.027182916,0.0053697024,0.009146544,-0.020724349,0.014999632,0.007390115,0.010119116,0.034479126,0.022095498,0.050449707,-0.17543554,0.024933172,0.018791523,-0.0051609906,0.026278477,0.061017953,0.0034455105,-0.027024176,-0.016097823,-0.013168954,0.015158014,0.015917977,0.0032261135,0.03421438,0.048565526,-0.090017445,0.02579946,0.022791177,-0.048591305,-0.0069679017,-0.031715892,0.019395156,-0.008608454,0.013885512,-0.07065912,0.004561748,-0.014449712,-0.00014241299,0.11359725,-0.002971591,-0.012734011,0.015052002,0.06011191,-0.025484566,0.009071147,-0.011467408,-0.028173022,-0.0076138773,0.0018330811,0.015445207,0.021516386,0.007980748,-0.03180241,-0.051878374,0.022518441,-0.0010561156,0.032816462,-0.044717662,-0.00999319,0.030297963,-0.00788737,-0.00070891087,0.004529509,0.013577068,0.07844338,-0.004580266,-0.011691132,-0.01626814,0.039959367,0.0062327147,0.018091144,0.049897127,-0.014193909,0.21082994,-0.025221087,-0.044674773,-0.0050586495,0.008198094,0.011685609,-0.005235034,-0.030569939,-0.00637563,-0.014275497,0.024038041,-0.00994034,-0.0036596933,-0.030477572,0.0107401945,-0.008457107,-0.004787621,0.009988774,0.0074271522,-0.020272564,0.029579554,0.0039263675,0.023716118,0.003606366,0.01617184,-0.037343375,-0.036029525,0.011868157,-0.029483914,0.0077146273,0.033308037,-0.051788412,-0.014033787,0.010327664,0.015728327,-0.043787137,0.000704216,-0.03722921,-0.048075784,0.07233206,-0.055207692,-0.0005514385,0.012078607,0.050427362,-0.01414781,-0.008153304,-0.007354856,-0.0154590765,0.010666084,0.042136986,0.01661439,0.028587922,0.0010529299,0.0032369557,-0.04946688,0.025903787,-0.0076969746,0.00753427,0.018742526,0.00073630834,0.00015583252,-0.04846609,-0.04747904,-0.014336015,0.051226117,-0.02040772,-0.015958356,-0.025569437,0.0097119715,-0.11305798,-0.005129949,0.0061060744,0.019392997,-0.008097628,-0.019253878,-0.011485132,-0.0051229303,0.021897603,0.033467513,0.039514817,0.015885249,0.11404679,-0.014889974,-0.01893233,0.016017687,-0.015928362,0.008636978,-7.089374e-05,0.03778099,0.03707143,-0.042067997,-0.027391855,-0.038308777,-0.08070154,-0.009863723,0.0631155,0.036318976,-0.035572633,-0.054475516,0.04067136,0.03670018,0.05129106,0.02107935,0.016918723,-0.00025986112,-0.016619362,0.026412565,-0.14377959,-0.033353057,0.013293813,0.010002502,0.14221121,-0.0020427923,0.0014560831,-0.010595101,0.022805035,0.02127698,0.030094815,0.03469227,0.012623566,0.013732756,0.016557692,0.0075718635,0.029891225,-0.00800726,-0.023311397,-0.016069125,0.005036375,0.010318791,-0.0445141,0.043748356,0.027351525,-0.045897886,-0.035732128,0.035289068,-0.05568017,-0.009408589,-0.0038824198,-0.0012474214,0.0072858953,0.024811469,-0.015901608,-0.012392937,0.0086885635,0.021057807,0.029256362,-0.003760778,0.0004383299,0.0065975124,-0.036444128,0.023694603,0.048631784,-0.044389542,0.009548807,-0.017279765,-0.008773482,0.05017548,0.0012740679,0.015867628,-0.014448799,-0.042502,-0.00784109,0.012742467,0.006680774,0.047489494,-0.02549234,0.023482354,-0.015481495,-0.0465491,0.024116753,-0.023438962,0.024351016,-0.009952515,-0.038218483,-0.08051361,-0.0059270477,0.013194707,0.028059674,0.0046787094,0.0118635325,-0.0075941547,-0.019533075,-0.0037558503,0.03652277,-0.006994783,-0.060266394,0.011969661,0.019923734,0.044925325,-0.019427704,0.09068984
zara_11.jpg,-0.022584477,-0.02115557,-0.01602929,0.0038449569,-0.02624468,0.029038422,-0.0025526541,-0.023519333,0.016957914,0.036636684,0.018654518,0.003191823,-0.06182685,0.017087819,0.033203438,-0.03188253,-0.053889412,0.0013846613,-0.010777788,-0.016118398,-0.017328031,0.005647324,0.047957934,0.0132568125,0.001019561,-0.004460785,0.023529151,0.05165784,-0.003704914,-0.011362526,-0.008559832,0.015554963,-0.04243788,-0.02195796,-0.008345781,0.0194089,-0.020442791,0.076541044,0.017779764,0.19378133,-0.0147497775,0.005025578,-0.020774515,-0.018248176,-0.0021050302,-0.079552904,0.03260349,0.040059708,0.009704295,0.030295022,0.050691202,-0.009536715,-0.027688248,-0.008483772,-0.05061534,0.020379366,0.054328516,-0.051048897,0.026741065,0.02719041,0.0020262038,0.054817166,0.0528177,0.017475182,-0.053500775,-0.001132594,-0.032468006,-0.05851201,-0.027562624,-0.0114673665,0.02011358,0.033176064,-0.020759935,-0.019423159,-0.038179353,0.014065321,0.09388619,-0.02233812,0.051581256,0.005964685,0.022653157,-0.013539881,0.02495224,-0.008497586,0.016197933,-0.0022374953,0.078836456,-0.03511311,-0.0354033,-0.019382002,0.045436725,-0.02063179,-0.58960956,0.025852814,0.020280825,0.01581845,0.03434853,0.031689543,-0.0018144025,0.07827552,0.0010719144,-0.03412504,-0.00960156,0.0050204885,-0.0007167107,0.040724885,0.018968869,-0.028719125,-0.00015632072,0.031566538,-0.03740511,0.008341121,-0.026266526,0.014855575,0.010945409,-0.002365432,-0.03041276,-0.009810639,0.04929694,0.005841628,0.010276192,-0.054825213,0.013453331,-0.03632161,0.0125468755,0.026570803,-0.01491584,0.0098794345,-0.0035516762,0.054345544,0.03791701,0.026281614,-0.01078742,0.07212278,-0.022181926,0.053865887,0.0012411104,-0.015836217,-0.019095454,-0.015648553,0.050570812,-0.016052255,-0.028046317,0.024098657,-0.016300844,-0.009039468,0.026208973,0.047123972,-0.012668449,0.0042244736,-0.023891341,0.027932337,0.14612153,0.0072178836,0.007031623,-0.017719287,-0.012044559,0.06063381,-0.0024881854,0.015580099,-0.014691776,0.002487258,0.017976647,-0.0062778248,-0.01641918,-0.03878146,0.04809041,0.03943231,-0.004178734,-0.02025581,0.010788091,0.0022430974,-0.036091123,-0.008346835,-0.016107278,0.06965671,-0.0008183969,-0.038789343,0.04971693,-0.036498785,0.0611523,-0.008880346,0.06721126,0.0037731114,0.009421008,0.04107208,-0.012770869,-0.05418084,-0.023678835,-0.028023211,0.016851373,0.013328944,-0.023212159,0.01504525,-0.00520637,0.01562998,-0.010928731,0.01952244,0.04755738,0.014432285,0.02370687,0.009239969,0.029346785,-0.009640818,0.023965793,-0.035203133,-0.031068005,-0.014876591,0.023772437,0.042341743,0.029676637,0.06552907,-0.042226788,-0.009919601,-0.08232034,0.009823765,-0.02491855,0.0347396,0.05209646,-0.00997745,0.02412158,8.730739e-06,0.010070613,-0.0022168502,0.009308052,0.018764377,0.014686485,-0.0025918598,-0.03165347,0.015048582,-0.029647455,-0.025676545,0.009999738,0.06607327,0.02257825,-0.054359294,-0.008531369,-0.03164251,-0.022513162,-0.023632593,0.011311388,0.024916474,0.007802104,-0.05901343,0.004950841,-0.023530668,-0.040451296,-0.0005548327,0.03235792,-0.0029046442,0.0012193476,0.0059173503,-0.0009293751,0.014185803,-0.004411919,0.031247133,-0.02043481,0.01057057,-0.08391307,-0.0015361209,0.01728524,0.004017507,0.03697289,-0.04360794,-0.026976185,-0.025173873,-0.008292475,0.015147616,-0.018362166,-0.013447072,0.0062174443,0.012087592,-0.014590383,-0.010896379,-0.019262867,0.038799673,-0.03902617,-0.006977094,-0.03266808,0.009850691,-0.008775674,-0.039505526,-0.084829405,-0.021503005,-0.024771,0.002889471,0.07894818,0.0055903024,0.00096342684,0.0020373377,0.016586177,-0.0018259747,7.284956e-05,-0.0010229667,-0.024406238,0.026513053,-0.08073953,0.004212161,0.031990767,0.012011105,-0.019688042,-0.02661224,0.011502731,0.0070355413,0.0112966485,-0.016627215,-0.01971248,0.007834486,-0.017007057,-0.014942009,-0.048361707,-0.008269869,0.07190594,0.021319842,0.0047469256,-0.047553673,0.033187326,0.026986836,0.003357682,-0.022206148,0.020600097,0.13982196,0.004032909,-0.06294198,0.047112446,0.006688082,0.038069703,0.015942354,-0.03285838,-0.023919944,-0.0051462953,-0.030017916,-0.026467549,-0.050029743,-0.046408784,0.0020737012,0.010089827,0.006612559,0.004339182,0.0073998137,0.010192459,-0.054728933,-0.02741612,0.062009927,-0.027597232,-0.0034115638,-0.0019476428,-0.023577483,-0.02625921,0.05137083,0.024685327,-0.0041996045,-0.0019389959,-0.034687694,0.014805652,-0.04659305,-0.029280463,0.08686804,-0.014282473,-0.035570186,0.08105023,-0.03263251,0.015955957,0.044028822,0.02011044,-0.0103491265,-0.01727957,-0.06516125,0.006599454,0.040421467,-0.0139854,-0.008573081,0.005378619,0.03211229,0.047486566,-0.064237244,0.10880439,-0.014675596,-0.013976676,0.029483424,-0.05716712,-0.025033431,-0.014380487,-0.009582644,-0.02684019,0.014181768,0.010613587,0.041347254,0.0019806665,0.21087724,-0.018062124,-0.01499795,-0.028876018,0.0064888704,-0.03366753,-0.019558718,0.0074224365,0.015905023,0.028108086,0.010437339,0.049084555,0.0007764724,0.09349551,-0.030638892,0.018073602,0.030527689,-0.014041485,-0.0007083748,0.0361928,0.014262203,0.02673459,-0.050057597,-0.0009264982,-0.021695936,-0.054884065,0.03555314,0.06564817,0.042873476,-0.01732667,-0.04856805,-0.00887049,0.009133154,-0.004990218,0.011826897,-0.01218073,-0.014631821,0.047303688,0.010186707,-0.1010126,0.0048697144,0.0011073566,0.017728323,0.20845954,-0.0016421732,0.023548327,-0.06695487,0.0015660581,-0.003536677,0.0022166425,0.0076457257,-0.04074128,-0.020138001,0.0078700865,0.008921069,0.041484036,-0.044093817,0.0007886705,0.002471162,-0.017173259,-0.0018509118,0.006601001,-0.022138812,0.03333454,-0.008225225,-0.0378211,-0.0013403133,-0.03232053,0.032271296,-0.03238008,0.02118643,-0.017274909,-0.016882345,-0.035759985,-0.0067521567,0.046766374,0.030048558,0.010275042,0.019315401,0.008700161,0.03187074,-0.017133832,-0.0077491705,0.026615098,-0.055991534,0.011157201,-0.0022681418,-0.013445649,0.011557021,0.034149703,-0.02592817,-0.003334845,-0.019622179,0.0029465773,-0.003756348,0.022710713,0.01855413,-0.014735193,0.0002586818,-0.0114403935,-0.0050158286,0.016457794,0.01815004,0.04325729,-0.016459279,-0.05451124,-0.013403062,0.021527886,0.017518245,0.009198043,0.041046903,-0.021958506,-0.015827034,0.0039187823,-0.020860016,0.035281274,0.016633986,-0.01904848,0.03453269,0.046685737,0.05225197,0.007084166,0.0024424342
zara_12.jpg,0.010228665,-0.0013098062,0.00662759,0.020739647,-0.025811316,0.011939272,0.0005441666,0.003410847,0.07384781,0.011121206,0.02689902,-0.0034441121,-0.06331389,-0.014745315,0.043039497,-0.016307466,-0.021467468,-0.016987097,-0.015017088,-0.037863422,-0.013287283,-0.0025631562,0.06377349,0.020492015,-0.054688692,-0.012721872,0.026021643,0.031135652,0.0095389,-0.043659203,-0.029873034,-0.013572171,-0.043012682,-0.014987435,0.002444396,0.033566546,-0.019649332,0.033403814,-0.011281094,0.18673532,-0.018223831,0.020689018,-0.029542623,-0.010347561,0.012731294,-0.057241105,0.023489134,0.04207901,-0.0098281205,0.034495357,0.04952698,-0.022669178,-0.040792525,0.020563494,-0.03387938,0.024658337,-0.0033616123,-0.026641965,0.023253545,0.04390192,0.0008726646,0.039910402,-0.009095215,0.026040897,-0.038484626,0.006995038,-0.0160628,-0.09812802,-0.018691441,0.0070512663,0.002710696,-0.0007496999,-0.014983777,-0.0230507,0.002128415,0.026320413,0.014832021,-0.024781136,0.0068921857,-0.011789591,0.005214504,-0.009418025,0.007994698,0.034120988,0.003785877,-0.0033690105,0.04714326,-0.043006375,-0.012484459,-0.021465654,0.054446347,-0.0035071652,-0.63448226,0.0028100656,0.010205339,0.030904256,0.023802085,0.04385774,0.003904978,0.06126476,-0.013073694,-0.040263936,0.009551107,0.0024217817,0.025520101,0.007990001,0.047986854,-0.004146661,0.024383768,0.04099792,-0.028637417,0.017930873,-0.009018749,0.009299245,-0.0037313364,0.022785787,-0.0089213755,0.021666983,0.032081597,-0.019260699,0.024402443,-0.014014884,0.027363837,-0.011313219,9.2301285e-05,-0.019004457,0.005376024,0.0025697001,-0.0068254913,0.036054496,0.01834988,0.034378674,0.014141573,0.074489534,0.01489388,0.014746631,-0.0051187975,-0.010103881,-0.016472753,0.0013132013,-0.0031229577,0.0022727512,-0.038666844,0.013286921,-0.03073289,0.0006490382,0.007956596,0.036350057,-0.0047316393,0.0053029596,-0.0015917962,0.010690821,0.16228199,0.02728175,0.011994136,-0.042350315,-0.024438959,0.027172338,0.014717436,0.02379709,0.009008616,0.0008651698,-0.0061548837,-0.014589424,0.0035803528,-0.05550114,0.05725117,0.027203307,0.0030264636,-0.00016496153,-0.0038306906,-0.0011185646,-0.019749206,0.0016136091,-0.013582669,0.009059733,0.012889838,-0.037634503,0.06334682,-0.046740066,0.08147777,0.0057097916,0.06231246,-0.005018372,0.005585673,0.0057317275,-0.011222421,-0.018835345,0.0037204956,-0.022975907,0.039131347,0.008394843,-0.035244983,0.037117705,0.0033277841,-8.796702e-05,0.008732867,-0.01688356,0.05602121,0.005454046,0.012740541,-0.007199191,0.015232781,-0.041032206,0.01566117,-0.019973688,-0.042224653,0.0037433426,0.02377422,0.03281936,0.045678027,0.067409635,0.0085737165,0.027412694,-0.06176195,0.01031577,-0.032022387,0.022607679,0.013877278,-0.012742901,0.007133507,-0.01797906,-0.006968932,0.013756707,-0.0022741456,0.03510649,0.04935841,-0.010252865,-0.00014296161,-0.0038073566,-0.035656806,-0.0035014069,0.026456876,0.03081184,-0.0045554396,-0.03762685,0.013466429,-0.055383302,0.0012871631,-0.023061508,0.0019254492,0.040105805,0.022107368,-0.050178725,-0.03096458,-0.040964134,-0.050032068,-0.021634873,0.010710193,0.00045659134,0.029357782,0.0011224174,-0.019471865,0.0046542077,0.038676944,0.032061853,-0.008193225,-0.00024478923,-0.062411394,0.0019666941,0.010040992,-0.026747856,0.049001686,-0.10402107,0.011219517,-0.02593944,-0.031127684,0.03975259,-0.016933098,-0.022666119,0.031859525,0.023414308,0.013403254,-0.023262415,-0.0037204174,0.0056256196,-0.011698159,-0.02880543,-0.026019266,0.015815774,-0.02183172,-0.049312964,-0.054864038,0.008571802,-0.0144851515,-0.005169105,0.019439751,0.024214994,0.0041895993,0.019750077,-0.011984908,0.010204132,0.03017913,-0.015481246,-0.04458489,-0.009845391,-0.066068426,0.0077473656,0.010369435,0.025058337,0.012348203,-0.04605709,0.029752968,-0.018263068,0.021509022,-0.011637799,-0.018049149,0.034721285,-0.01543877,0.01689711,0.0053857113,0.048121862,0.07431343,0.01629014,-0.0029178094,-0.03608093,0.05647979,-0.011979029,0.0070403903,-0.015337997,0.024120739,0.12119047,-0.0011643876,-0.05564219,-0.014452767,0.035553508,0.027783899,0.0066488776,-0.013431199,-0.008021954,0.016261324,-0.023857428,-0.017302709,-0.03743963,-0.018382877,-0.018166626,-0.008216328,-0.04123957,0.028839406,0.049739048,-0.0155291185,-0.053711444,0.017284982,0.07097569,-0.026307477,0.002003983,0.007887418,-0.008106819,-0.03748028,0.035062283,0.022645367,-0.014160838,0.00398775,-0.017058128,0.04262123,-0.09691511,-0.010548515,0.04036391,-0.008581428,-0.02611115,0.06784038,-0.031077959,-0.006598753,0.049777094,0.035552803,-0.015276588,0.008868889,-0.069100626,-0.009952142,0.046493135,-0.0073145656,-0.02509829,0.003999,0.0184006,0.009140217,-0.043326445,0.11346738,-0.013302467,0.01443515,0.01641493,-0.032163896,-0.01738889,-0.028019328,-0.033911422,-0.03946032,0.009061756,0.027999518,0.03117984,0.004176029,0.19864129,-0.028315874,0.014905604,-0.012983346,0.0004617899,-0.032946326,-0.049759604,-0.01637521,-0.032571614,0.019201769,-0.016024549,0.02519025,-0.0033116846,0.09002203,-0.024411485,0.014758643,0.029492574,-0.014798979,-0.020942459,0.028098108,-0.03221349,0.0455257,-0.0072842455,0.0024286478,0.014088909,-0.0107351355,0.036786675,0.06493964,0.03846074,-0.024501467,-0.032589126,-0.0021859389,-0.0025593673,0.05373583,0.07747528,0.0047432557,0.0017846662,0.017162157,0.019093476,-0.1585611,-0.010871117,0.039097972,0.011582358,0.1553763,-0.021207701,0.004165635,-0.059681542,0.034465123,0.014371957,0.004937958,0.03991654,-0.024227666,0.012886802,-0.04413336,-1.27171115e-05,0.032156873,-0.019288264,0.011325115,0.002764427,-0.035723582,-0.005099253,0.056247067,-0.0040729507,0.02300068,0.008857953,-0.045765214,0.028844306,-0.00052303536,0.017362533,-0.0033987297,0.013590662,0.0006171026,-0.010688577,-0.014477779,-0.03390887,0.026271533,0.016773982,0.0399946,-0.010404132,0.008532024,0.03696037,0.022540707,-0.00964574,0.0053911046,-0.027829336,0.02570646,-0.014602662,0.014557441,-0.0013459848,0.019570809,-0.008655786,0.012953009,-0.048015106,0.009708118,-0.0069591817,-0.022364823,0.023786461,-0.029581962,-0.002967437,-0.023957396,-0.009693593,0.006507386,-0.006011536,0.014236325,0.0013956465,-0.030163761,-0.01838257,0.011487597,0.028584098,-0.012275874,0.040655635,-0.066400014,0.018631762,0.03038301,-0.0031368933,0.037650697,-0.002222563,-0.017380541,0.012499569,0.049716786,0.017490827,-0.014516166,0.026636148
zara_13.jpg,-0.0068436367,0.02378464,0.008208842,0.0027434903,-0.022969194,-0.0053730565,-0.023156822,0.018972494,-0.01644226,-0.008389223,0.023017423,0.002263842,-0.015467945,-0.018280938,-0.020343492,-0.03234362,-0.089610495,-0.011688257,0.00045211392,-0.021923741,0.057841755,0.019051794,0.03416162,-0.0072132703,0.004946877,-0.024242025,0.0007981279,0.027897464,-0.00040489057,-0.02578566,0.0014019,0.015645688,-0.011334863,-0.07879081,0.003144134,0.0062367874,-0.034814782,0.07458393,-0.0057571502,0.2226605,0.016949903,0.0016345087,0.014882975,0.0113361785,-0.033884525,-0.067997366,-0.027628455,0.022453543,0.0039412417,-0.011028819,0.022456534,0.024306577,0.007456281,-0.012854127,-0.010766536,0.03725132,0.07319649,-0.041423764,0.023928981,0.0032477065,0.039185345,0.035062682,0.013237484,-0.00012798829,-0.02275201,-0.023622802,0.0012431676,-0.039363608,-0.00462504,0.00042334653,0.010303422,-0.015433281,-0.026809175,0.009581333,0.017783977,-0.014563717,0.03896945,-0.031950757,0.0093051605,-0.009564353,0.00457567,-0.015759813,-0.014442295,-0.0023848005,0.028258082,0.022392606,-0.0018937069,-0.028043306,-0.03837931,-0.0055172904,0.027656857,0.013058981,-0.62902606,0.021345058,0.0015968907,0.039273273,0.028508391,0.015345694,-0.0040176488,0.093969904,-0.026198987,-0.042816073,-0.009655624,0.026749136,-0.0051211566,-0.024622487,0.01832733,-0.003509045,-0.011158294,0.022177959,-0.026669525,0.027704084,-0.018819544,-0.007430366,-0.009634776,-0.012971666,-0.007413324,-0.016605886,0.036636274,-0.01382298,0.004414691,-0.09263609,0.028569287,-0.018889442,0.0052932687,-0.01342378,0.013778081,0.024524257,0.0022448113,0.054995924,0.004146181,0.024763744,-0.012598091,0.07365235,-0.011434844,0.02018695,0.02054545,-0.047398984,-0.03266762,0.037149914,0.0074238703,-0.019424714,-0.001704215,0.0073334947,-0.014949969,-0.010034888,0.007278899,0.05347945,0.0059896912,0.011365381,0.024661014,0.01738732,0.07715962,0.049113028,-0.012853922,-0.06433645,0.009300989,0.053648457,-0.0061393203,0.031764522,0.00071478775,-0.016286628,0.008082729,0.030635456,-0.0014706503,0.010240961,0.038517747,0.036501043,0.039101567,-0.020243775,-0.037068922,-0.012614902,-0.013181232,-0.05526607,0.007726233,0.026918853,-0.0176713,-0.037498325,0.046711303,0.0011078095,0.08069977,-0.027037278,0.026312582,0.008144396,-0.047112208,-0.001898767,-0.0073912186,-0.013372885,-0.0062116617,-0.01744672,0.021498242,0.008424332,-0.0059116604,0.030959511,0.0052970303,0.021426424,0.013683205,-0.011120957,-0.039226405,0.01420304,-0.00495719,0.00880378,0.04436795,-0.0045844745,0.002570553,0.019397665,-0.010197028,-0.0060895686,0.021291282,0.03939005,0.01942615,0.04456565,-0.024587084,0.037462626,-0.062481195,0.0050423746,-0.019889958,-0.007760974,0.009355977,-0.011503027,-0.0018058553,-0.036133524,0.016548669,-0.0051609776,0.006383094,0.0024182517,0.002147669,-0.016436458,0.008506531,0.028946538,-0.03413271,-0.015927533,-0.00060795195,0.017364327,-0.043380786,-0.088763766,0.0032639296,-0.051251374,-0.0048544793,-0.039698023,0.01841198,-0.00093744276,0.054080296,-0.015568321,-0.0063212733,-0.03623253,-0.03822811,-0.005746001,-0.0014168572,-0.0090026595,-0.014514024,-0.019299109,0.024610382,0.022902006,0.0064811152,0.008415158,-0.036646884,0.05472254,-0.047044855,-0.0073652803,-0.00762825,-0.008806892,0.088472486,-0.02171842,0.034268253,0.004695565,-0.009704704,0.01663094,-0.0075407736,-0.027719988,0.041863132,-0.041027848,0.0322168,-0.03198704,-0.00078597415,0.0055069188,-0.010404566,-0.028950617,0.0071015474,-0.006184186,0.022306334,-0.027151791,-0.089956336,-0.004872402,-0.021226428,-0.0032880204,-0.026207563,0.050729536,0.021093853,0.028457193,0.0045811045,-0.015377774,0.016203491,-0.019818626,-0.0057824166,-0.0030585392,-0.04037512,-0.022405572,0.05426365,-0.017757116,0.032670543,-0.026650777,0.018138545,0.008984132,0.023613552,0.04807348,-0.020009331,0.029259922,0.018591845,-0.020980988,-0.0170973,0.015378648,0.07345759,0.04855387,0.016765136,-0.0021041646,0.025137393,0.020656487,-0.017326502,0.009905512,-0.017209245,0.1130313,-0.054168187,0.0044991104,-0.02966512,0.01299413,0.059180375,0.024714125,-0.011056901,-0.010275661,-0.015815433,0.006780759,-0.028808149,-0.042805355,-0.0055016335,-0.061496377,0.04575292,-0.0008288903,-0.012181572,0.014692417,0.010316473,-0.047873497,0.007842184,0.066029556,-0.0040682163,0.017339304,-0.012416331,-0.03526499,-0.014611684,0.035397213,0.011994702,0.007351356,-0.03107125,-0.028602546,0.015748734,-0.07234516,0.008597267,0.030554838,-0.012615098,-0.025849044,0.013930917,0.001505322,0.008628634,0.038640186,0.019613223,0.015701883,-0.019389508,-0.050982766,0.018950948,0.017464915,0.012698149,0.024753345,0.016664613,0.000515104,0.03306579,-0.04206718,0.10458186,0.014882756,0.045381878,0.04895171,-0.023003146,0.022723172,0.0036186106,-0.05944757,-0.03212362,0.056732412,-0.02595444,0.02219716,-0.048447266,0.22386697,-0.06815785,-0.014311436,-0.03757777,0.006584676,-0.060810037,-0.025090732,-0.046612907,0.01381726,0.010908582,0.044110697,0.022811342,-0.019144468,0.032086473,-0.02006929,-0.0053929626,0.029198647,-0.017693276,-0.031903714,0.005497253,-0.019019766,-0.022865588,-0.044214725,0.003946288,-0.027157733,-0.04238953,0.008640948,0.051690098,0.018469727,0.04339471,0.0076811034,-0.021289013,-0.010601849,0.015968194,-0.017320992,0.0134393675,-0.003385553,0.012396813,-0.009627004,-0.18192236,-0.01295143,0.03482187,-0.023384236,0.15811133,0.01511388,0.022684867,-0.0528069,-0.0013271256,0.006296507,-0.0006246239,-0.002342193,-0.024337862,0.033651203,0.0019312765,0.03506647,0.013634942,0.0032454282,0.006995047,0.0018595557,-0.0013798401,0.015836658,-0.01680659,-0.042841103,0.07798282,-0.0258591,-0.029269354,0.014069382,-0.018549249,0.019907046,-0.025014156,0.023914509,-0.0043372004,0.007835989,-0.036734648,-0.016499197,0.044522583,-0.020371793,0.06832005,0.000106090534,-0.0022645947,-0.024379557,-0.0046955566,0.00782379,-0.029162133,-0.025562134,0.046578355,-2.1949481e-06,-0.03513642,-0.0064616264,-0.016787386,-0.010180689,-0.02422637,-0.022542708,0.029731693,0.021022994,-0.020218251,0.03376714,-0.025132412,-0.038305674,-0.01576046,-0.0062617604,0.032821048,0.014624545,0.018071342,-0.01619764,-0.05731811,0.012126566,0.029679326,0.018012805,-0.024558626,0.006157864,-0.008398451,0.011661497,0.021381194,0.010510676,0.08029256,-0.032934796,-0.015801372,-0.0063714474,0.019193698,0.00846676,0.003869262,0.028837258
zara_14.jpg,-0.009486303,0.027497623,0.013705054,0.021227622,-0.0059875036,-0.02295261,-0.020062156,0.0056763217,0.05357138,0.0077319415,0.041030224,0.0074875765,0.033621322,0.015127812,0.028002303,-0.06670599,-0.024935657,0.022661556,0.044340797,-0.03895296,0.06759946,-0.032029238,0.023565402,-0.0010571224,-0.023277028,-0.0044124727,-0.012253579,0.0522491,-0.029515063,0.036212586,-0.010642593,-0.0032123025,-0.05188782,-0.00936537,-0.0114718815,0.0010600864,-0.008138141,0.030298304,0.010226835,0.23735088,0.035024896,0.015674403,-0.03224297,0.004915668,-0.016001245,-0.115130775,-0.0016389091,-0.012916239,-0.049476996,0.026857257,0.043032326,0.040682416,-0.006385332,0.009574445,-0.036919322,0.028720036,0.026464747,0.023557378,0.012602106,-0.016309775,-0.10587399,-0.0020356975,-0.019294517,-0.008245404,-0.015211017,-0.025049252,-0.0039922483,-0.019388288,-0.0075745606,-0.005483436,-0.03046621,0.029592345,-0.04800746,-0.042116612,-0.0021649373,-0.005650698,-0.03475664,-0.003036389,-0.012594712,-0.015273894,0.0021611862,-0.031547282,-0.01126764,-0.036585335,0.024700336,0.020301927,-0.005377573,-0.024051273,-0.033465043,-0.014278208,0.015326459,-0.033822842,-0.58730996,-0.0025315015,0.024769498,0.019322343,0.012818983,0.020050365,0.016074281,-0.0023647563,-0.03570275,0.0003169894,-5.199325e-05,-0.021173215,0.03386245,-0.009450303,0.09934778,-0.0018152392,-0.048295956,0.015382855,-0.0006780108,-0.0029018458,0.0002847028,0.021309448,0.021940468,-0.042267263,-0.06036739,-0.0144195575,0.01963365,-0.023917573,0.027058216,-0.06287566,-0.017744934,-0.0014550635,0.009070776,-0.011059109,-0.01349375,0.012928828,-0.013626769,0.031313144,-0.015650967,0.034464814,-0.0074012754,0.07713351,0.025431544,0.03912434,0.011738651,-0.011084626,-0.05352052,-0.004819313,0.01589599,-0.07941399,0.028482487,-0.025887696,0.0011349322,0.02427274,-0.000107409665,0.017097268,-0.007689797,0.0010146168,0.0044220136,0.026936494,0.08732232,0.026907593,-0.0011044255,-0.04369862,-0.006838677,0.057607662,0.0065272893,0.014200537,-0.024462985,-0.016950706,0.023879029,0.017699558,0.011907038,-0.0041158665,0.010617286,0.032520015,0.032687094,-0.004147628,0.009229212,0.025647629,-0.010737201,-0.003354164,-0.0024887947,0.002875097,-0.0056176614,-0.03928554,0.04438336,0.008119584,0.10493693,-0.021687334,0.028894112,0.030060481,0.010012726,0.0036311494,0.03819535,-0.013401959,-0.039010555,-0.0068332716,0.010029048,-0.0091199605,-0.037369747,0.036240987,-0.029951442,-0.015760718,-0.012107021,0.0035523903,0.012019161,0.0318464,-0.022430854,-0.013129326,0.0009927724,0.0056397067,0.036212765,-0.013026699,-0.033239085,-0.007903611,0.023043253,0.04030826,0.019693192,0.035701737,-0.0007050025,0.058906987,-0.0064737992,0.048456587,0.018108495,0.025931288,0.032714587,-0.030661138,-0.01501988,-0.059441898,-0.0023252477,-0.02859186,-0.014696025,0.019119058,0.040303074,-0.031086328,-0.0105400095,-0.0030238833,-0.012091671,-0.035048373,0.019370725,0.02817985,-0.052718915,-0.15106197,-0.014232339,-0.025621084,0.004480038,-0.05003267,-0.011514953,0.010392351,0.036461767,-0.024605593,-0.023567276,-0.04330557,-0.048270047,-0.010071722,0.011166276,0.01942672,-0.006664892,0.00034700328,0.010723806,0.0060287802,-0.016967187,-0.025059449,-0.06122603,0.017195173,0.02938899,0.017564816,0.00069973874,0.019826435,0.034615386,-0.087309405,-0.027887221,-0.034255274,0.0011852938,-0.029245285,-0.003577039,0.028801722,0.06774042,0.0140372915,0.029584987,-0.0057048425,-0.012818528,-0.0029314104,0.0024604131,-0.023978753,-0.04480597,0.008253861,0.01930698,-0.02146392,-0.075393505,0.009863876,0.025198275,-0.018182795,-0.00029548228,-0.0044789175,0.0016896419,-0.0032048966,-0.03262869,-0.004614335,0.011799379,-0.03094117,0.007885964,0.017814178,-0.04455426,-0.026616748,-0.016089145,-0.0023545453,0.0014248854,-0.06750532,0.053804006,-0.02054968,-0.026024899,0.03980231,-0.021949196,0.0034243092,0.018257933,-0.0042042825,-0.0297399,-0.0037435852,0.07690254,0.025260946,-0.0019434261,0.0004552019,0.055765454,0.0033747475,-0.01959698,-0.025843525,-0.0010939043,0.08934725,0.0161409,-0.041939724,-0.02951098,-0.011166618,0.027192244,0.014420268,-0.008860417,-0.01092134,0.0064777713,0.0048176018,0.03331446,-0.041563906,-0.005381042,0.002649761,0.002726124,-0.0020469674,0.015775524,0.05643653,-0.04460659,-0.037025686,0.019516276,0.03677754,-0.013502223,0.010663545,-0.027820265,0.017465364,0.020045849,-0.005051027,0.033673566,-0.010901921,-0.028923884,-0.037169304,0.0066322675,-0.024381166,0.030155914,0.03785111,0.014233816,0.008971274,0.019256316,0.0012222965,0.012384242,0.06052477,-0.062848896,0.036868297,-0.01593072,-0.10796295,-0.019997463,0.026728267,-0.0141084865,0.046165604,0.043585464,-0.0050022085,0.020629501,-0.008578861,0.13746203,0.024663495,0.0515731,0.042224873,0.016891973,0.014950838,-0.0029089286,-0.049620066,-0.02481343,0.0023389831,0.016557412,-0.0008229155,-0.04331882,0.19016726,-0.049751274,0.0071654157,0.039759535,-0.007377058,-0.065394595,-0.012809196,-0.03125754,-0.03551757,0.016186332,-0.012459596,0.004875728,0.0037183985,0.04288459,-0.033036232,-0.014299987,-0.024551539,-0.008395798,-0.022649404,0.026757872,-0.024096945,-0.027146388,-0.042257342,0.01505402,-0.035423957,0.02119078,0.018986626,0.06640578,0.0610773,-0.030129697,0.025275879,0.012815793,-0.032916587,0.0029993379,-0.019789588,4.0322324e-05,0.010700111,0.0052878913,-0.0038262727,-0.20881309,-0.008726236,0.023248607,0.03147284,0.12775522,-0.034353293,0.012157695,-0.019037465,0.017668746,0.023809154,-0.010894693,0.0130928205,-0.032684788,0.006249864,-0.047601957,0.036295194,0.032148656,-0.012440615,0.0533253,0.007221968,-0.0139461355,0.017385393,-0.044221602,0.016809281,0.030958436,-0.040292013,-0.014508198,0.0141892955,-0.010655666,-0.002923721,-0.011675206,0.00421259,-0.022576641,-0.015376434,-0.0080662975,-0.024999442,0.037789598,0.016418472,0.011932642,-0.017483966,-0.0006099248,0.029275404,0.048904326,0.008090605,-0.033637814,-0.031366933,0.002141099,-0.015305747,0.002130806,0.005632648,-0.050032973,-0.005230977,0.011187005,-0.049030934,0.00046198405,0.0050649974,-0.04816057,0.058487963,-0.0110897375,-0.0017658545,-0.023284877,-0.04282639,0.06545496,-0.023900036,0.037847426,-0.018324645,-0.07043134,-0.010571893,0.027416954,0.018299805,0.005324373,0.03524797,-0.04663878,0.036968492,-0.017551038,-0.012850718,0.04356241,-0.026049362,-0.011479466,0.007562979,0.016622186,0.06165064,-0.0013085408,0.012984551
zara_15.jpg,-0.03881233,0.037747156,0.0051902826,0.017118733,0.019735828,-0.00880378,-0.0336854,0.018271668,0.070456095,-0.023182483,0.014964137,0.0063763456,-0.033381592,-0.017128779,0.011290916,-0.0096856905,-0.04353689,0.007522013,0.019246973,-0.020521654,-0.00057648384,-0.027491305,0.05068527,0.00441252,-0.033360515,0.011479084,0.02250679,0.025290702,-0.0013053996,-0.028053291,0.005583054,0.0018273757,-0.012562257,0.00026564443,0.015782323,0.029789096,-0.008802613,0.037739947,-0.034066714,0.20138663,-0.024654478,0.023576232,0.0064886836,0.017641762,-0.03310852,-0.07079346,0.00031187668,-0.015069959,-0.008939226,0.029858992,0.057045914,-0.00053376687,0.0032744508,0.00083497306,-0.0352303,-0.00013762728,0.025506519,-0.013806848,-0.023442814,-0.007172869,0.0065732207,-0.00277013,0.03924464,0.007348683,-0.019606235,-0.00036694412,-0.0067614056,-0.03598533,0.006281273,0.022875719,-0.04411565,0.02979307,-0.02593696,-0.010789177,0.0073893326,-0.02193467,-0.017344838,0.01797041,0.021373557,0.0012485118,-0.04020406,-0.0499255,0.026565712,0.008068838,0.010610618,-0.020440398,0.05541874,-0.04226538,-0.029679285,-0.018986396,0.033080522,0.021839514,-0.6241106,0.03482846,0.03076118,0.043771457,0.004848873,0.012402141,0.023956563,0.0498682,-0.025755106,-0.030136432,-0.020682218,-0.024444727,-0.003813801,-0.011449505,0.123204544,-0.010096829,-0.041435998,0.0026797124,-0.031379104,0.021190848,0.010813909,0.010970104,0.034920156,0.010425278,-0.05987903,-0.00085272815,0.027373327,0.0046314276,0.032665998,-0.008517155,0.0032888753,-0.01027342,-0.009790151,0.0013348437,-0.0037903485,0.0069835507,-0.026084572,0.029555244,0.026654858,0.0037305872,0.039002,0.07499318,-0.020498857,0.032912277,-0.039906092,0.028368836,-0.03025083,0.026282964,-0.018307583,-0.032197803,-0.0145638315,-0.0066701476,0.020359311,0.0043780245,-0.0009808633,0.055595554,-0.00047833586,-0.024425087,0.00049876416,0.037102163,0.06840111,0.02580429,0.018723283,-0.045998275,-0.0046324003,0.015074489,-0.0004375068,0.00038766506,-0.025383428,-0.028144965,0.026773421,0.011749919,-0.008240407,0.0072410223,-0.028351845,0.0512377,-0.033238158,-0.018873444,0.035888188,0.012831374,-7.1481645e-06,-0.0021562637,-0.02845103,0.010755969,0.05594788,-0.010125531,0.051959135,-0.02885641,0.06525001,0.03191465,0.049818072,-0.028104756,0.006753298,0.019297877,0.0034968606,-0.0031229518,-0.003103975,-0.011250778,0.04622476,0.0015653586,-0.010249679,0.02128908,0.022709796,-0.017673537,0.005330568,0.0040975004,-0.0013577711,-0.0054854904,-0.026236426,-0.03957342,0.03301969,0.01198149,0.020704124,-0.010343222,-0.026214918,0.024534035,0.011807989,0.033690687,0.041923176,0.06694127,-0.046456598,0.03823268,-0.045128644,0.022646902,0.03513178,-0.0040263277,0.040708,-0.024689479,-0.006480498,-0.044139337,0.007012494,0.011263732,0.04491727,0.025162274,0.03334433,-0.046749294,0.026232399,0.0014409095,-0.019082114,-0.014596549,0.016576007,0.04478364,-0.043609533,-0.09758378,-0.0069481414,-0.04468204,-0.0054632006,0.002546229,0.019261932,0.010330216,0.02566937,-0.04262765,0.016608322,-0.038652763,-0.023655433,-0.028287238,-0.0085512,-0.018930065,0.03330254,0.025997804,-0.007154711,-0.0024987222,0.016133148,0.008196491,-0.0014178782,0.0018366016,-0.039002698,-0.021321818,-0.008147479,-0.04162664,0.03221599,-0.092125446,-0.0017623446,-0.02923535,-0.009282324,0.029632278,-0.013473801,-0.007511332,0.04371554,0.041595504,0.008122544,-0.041482165,-0.044442043,-0.008582838,0.019935232,0.020765679,-0.037336558,0.018790385,-0.019094858,-0.049577173,-0.105070986,-0.0031802114,0.011515611,0.011652233,0.05868271,-0.0074554,0.03665289,-0.0010520398,-0.042761806,-0.02717507,0.043545283,-0.02537603,-0.0016285913,-0.043305583,-0.06853724,0.0043304325,-0.00035342356,0.0088604065,0.018756911,-0.0047704442,0.0019052498,0.005325028,-0.007885124,0.04233347,-0.037951447,0.01696567,-0.033419717,-0.0009876927,-0.04698072,0.024000598,0.07478752,-0.009885239,-0.015664013,-0.010703588,0.0455463,0.03211501,-0.02215438,-0.00813344,0.0025264302,0.12521532,0.007336547,-0.043896914,0.0329775,-0.039539948,0.058507666,0.033778466,0.01047204,0.0012546936,-0.002700655,0.009524399,-0.007514934,-0.01674704,-0.012899651,-0.0061218916,0.034689676,-0.0093330275,-0.0025340605,0.065751284,0.01617353,-0.04232315,0.020302908,0.060419418,-0.031893495,0.039543543,0.0076780505,0.013124986,-0.026543116,-0.027362056,0.05096659,-0.009266218,-0.018559141,-0.01659189,0.017590605,-0.0040698745,-0.014165625,0.06539283,-0.008547583,-0.028582552,-0.014943255,0.0044552013,-0.0034495832,0.09098776,0.011434068,-0.031387493,-0.027687589,-0.06971729,-0.009987115,-0.0033130078,-0.022301799,-0.043080926,0.0113138,0.024629617,0.04707378,-0.021644155,0.13213643,0.021846257,0.009083773,0.010468086,-0.032310076,-0.026882838,-0.016165791,-0.048341393,0.018751005,0.021780085,0.01288114,-0.0011962345,-0.04191804,0.15232222,-0.049894445,-0.034895334,-0.03442851,-0.010606578,-0.0637073,-0.02178962,-0.014483918,-0.015897973,-0.007730331,0.013894384,0.025214028,0.0126604,0.040508345,0.002629575,0.038547095,0.00744362,-0.004251864,0.01511735,0.044891518,-9.157169e-05,0.00514389,-0.006359064,-0.0059813233,0.0021981096,-0.011618214,0.013461635,0.050680082,0.07429285,-0.035774887,-0.03163044,-0.0005358555,-0.041285645,0.025257632,-1.428982e-06,-0.013919002,0.0039453325,0.012133923,0.029958319,-0.21004559,-0.019208713,0.008384079,0.00067714433,0.14489262,-0.031656545,5.1353523e-05,-0.04010421,0.021803524,0.008117272,0.0027768116,-0.01185381,-0.04955037,-0.0042592026,-0.039684806,0.026974361,0.02476113,-0.0072750775,0.0055659646,-0.0014265495,-0.042637076,0.030138409,0.00817325,-0.017364781,0.064314656,0.002677638,-0.019717352,0.044050608,-0.029807076,0.026116319,-0.0023394998,0.038509537,0.0124278115,0.013776912,-0.0065989466,-0.0412652,0.0053019635,0.010163939,-0.009805315,0.028638266,0.016658736,0.059547964,0.044034082,-0.002889431,-0.023493214,-0.07264786,0.0163106,-0.014826822,0.0015183394,0.029403191,0.009092976,0.03415265,0.00197697,-0.03603524,-0.01885717,-0.0013853711,-0.009162863,0.035507217,-0.03241194,0.0121871885,-0.029255478,-0.020686895,0.045801606,-0.0124271335,0.028632807,0.0038729543,-0.03675832,0.0031170533,0.061770707,0.052059617,-0.0023520195,0.0321832,-0.042296547,0.023905782,0.013383257,0.003989304,0.05715114,-0.03153893,-0.0078798765,0.019573685,0.0121565,0.036510583,0.004605271,0.009847388
